tree
version=v4
num_class=1
num_tree_per_iteration=1
label_index=0
max_feature_idx=29
objective=regression
feature_names=discount flag_promo leaflet day_of_month day_of_week month holiday_flag rolling_std_7 rolling_std_14 rolling_std_30 campaign_active campaign_type structure_level_2 pvp_was_competitorB pvp_was_chain delta_price_chain delta_price_competitorB lag1_price_chain lag7_price_chain delta_chain_lag1 delta_chain_lag7 lag1_price_competitorB lag7_price_competitorB delta_competitorB_lag1 delta_competitorB_lag7 is_cheapest is_most_expensive is_cheaper_than_chain is_cheaper_than_competitorB price_rank
feature_infos=[0:0.92549999999999999] [0:1] -1:0:2:3:1 [1:31] [0:6] [1:12] none [0:242.14937562233297] [0:192.9028533789955] [0:138.2293477846348] [0:1] [0:1] [101:305] [4.3399999999999999:475.41000000000003] [4.3399999999999999:919.75] [-416.56999999999999:453.01999999999998] [-121.14999999999998:742.60811246339711] [0:919.75] [0:919.75] [-416.56999999999999:453.01999999999998] [-416.56999999999999:453.01999999999998] [0:475.41000000000003] [0:475.41000000000003] [-121.14999999999998:142.5] [-121.14999999999998:142.5] [0:1] [0:1] [0:1] [0:1] [1:3]
tree_sizes=2962 2968 3000 3024 3007 3003 3027 2989 3000 2976 2990 2988 2980 2965 2985 2981 2950 2972 2963 2960 2967 2971 2941 2942 2948 2950 2925 2950 2944 2957 2935 2932 2911 2922 2933 2939 2929 2931 2941 2946 2908 2925 2923 2937 2929 2919 2936 2921 2918 2918 2913 2901 2930 2944 2950 2915 2899 2935 2932 2957 2925 2948 2956 2917 2950 2942 2957 2930 2940 2907 2923 2913 2925 2943 2954 2918 2904 2933 2914 2914 2943 2918 2928 2929 2929 2949 2930 2937 2931 2921 2921 2950 2937 2979 2940 2981 2928 2952 2916 2950 2923 2940 2950 2919 2916 2930 2912 2981 2984 2905 2914 2922 2914 2958 2976 2939 2987 2946 2982 2921 2925 2948 2966 2902 2933 2944 2911 2891 2947 2925 2977 2950 2969 2952 2945 2935 2931 2944 2955 2914 2942 2868 2866 2981 2901 2953 2987 2902 2933 2971 2981 2930 2901 2904 2936 2947 2924 2899 2941 2968 3018 2954 2871 2892 2936 2957 3007 2951 2928 3045 2960 2907 2986 2895 2915 2948 2970 2892 2889 2913 3006 2870 2824 3008 2952 2917 2980 2917 2874 2888 2853 2928 2868 2920 2949 2936 2998 2933 2893 2879 2868 2869 2945 2911 3006 2913 2873 3011 2995 2787 3052 2932 2864 2912 2878 3033 2852 2903 2858 2892 2845 3003 2818 2956 3007 2872 3021 2863 2915 2802 2883 2872 2939 3000 2873 2774 2924 2906 2967 2916 2830 2887 2904 3030 2830 2846 3049 2938 2905 2887 2830 2865 2932 2914 2991 2894 2878 2968 2884 2982 2869 2879 3035 2954 2844 2889 2931 2972 2932 3029 2883 2980 2840 2909 2814 2942 2936 2907 2950 2832 2936 2882 2881 2822 2932 2924 2899 2913 2827 3040 3029 2831 2947 2818 2946 2944 2839 3027 2895 2881 2895 2928 2831 2789 2884 2897 2852 2945 2988 2818 2883 2887 2921 3023 2923 2816 3011 2862 2881 2887 2918 2985 2900 2892 2828 2876 2899 2989 2908 2910 2860 2796 2965 3002 2899 2983 2922 2868 2904 2984 2853 3041 2841 2849 3024 2963 2833 2960 2961 2807 2927 3061 2933 2852 2814 2843 2907 2823 2904 2897 2892 2782 3075 2891 2908 2874 2817 2897 2847 2886 2917 2912 3023 3008 2822 2944 2817 2888 2968 2878 2914 2895 2836 2841 2845 3014 3029 2898 3049 3002 2899 2994 2934 2945 2904 3061 2855 2934 2867 2917 2929 2869 2922 3044 2964 2909 3002 2804 2958 2866 2950 2906 2964 2965 2834 2836 2959 2823 3062 2986 2891 2981 2973 3001 2875 3004 2978 2970 2874 2848 2992 2894 2980 2958 2899 2825 3023 3021 2846 3048 2988 2887 2897 2912 2841 2916 2879 2794 2856 2885 2928 2864 2853 2998 3051 3079 2960 2996 2890 2871 2857 2852 2990 2860 2874 2965 2971 3024 2855 2887 2794 3024 2875 2810 3044 3060 2960 2905 2941 2834 2991 3034 2768 2856 2864 3052 2951 2989 2954 2849 2908 2975 2843 2875 2905 2868 2996 2987 2843 3054 2878 2971 2976 2918 2969 2951 3017 2929 2885 2911 2858 3044 2985 3006 2927 2965 2918 2784 2868 2983 3063 2905 2995 2874 2966 3072 2884 2849 2913 2821 2911 2818 2988 2999 2906 2952 2843 2899 2877 2906 2826 3054 2964 2832 2893 2848 2852 2823 2988 2866 2956 2840 2916 2901 2916 3018 2912 2885 3001 3005 2894 2985 2911 2944 2895 2879 3004 2812 2942 2813 2906 3011 2831 2861 2927 2890 2855 2949 2893 2856 2935 2863 2988 2940 3018 2935 2875 2858 2836 2848 3016 2927 2989 2922 2844 2989 2930 2908 2925 2887 2863 2851 2923 2996 2967 2952 2901 2988 2879 2890 2984 2783 3051 2981 2985 2836 2803 2937 2970 2880 2915 2949 3080 3019 2900 2937 2847 2860 2906 2901 2897 2881 2936 2952 2784 2903 2851 2866 2971 2948 2923 2922 2939 2966 3010 2809 2869 2913 2922 2851 2931 2901 2949 2973 2806 2899 2862 2990 2991 2878 2918 2909 2950 2973 2999 2892 2883 2846 2960 3020 3043 2974 3037 3003 2897 2886 2904 3031 2817 2947 2890 2902 2867 2863 2867 2830 2937 2929 2877 2859 2906 2906 2962 2845 2843 2941 3057 2985 2969 2919 3003 2848 2990 2870 2839 2854 2864 2986 2902 2999 2945 3043 2996 2985 2948 3041 2975 2974 2827 2946 2918 2938 3004 3009 2862 2985 2893 2841 2832 2919 2840 2940 2823 2851 2840 2992 2833 2942 2817 2921 2918 2922 2964 2908 2895 2898 2900 2905 2895 2924 2830 3010 2949 2873 2884 2925 2920 3053 2909 2864 2987 2912 2953 2920 2890 2855 2818 2943 2867 2885 2927 2916 2910 3020 2918 3004 2873 2904 2900 2873 2942 2880 2918 2838 2952 2876 2917 2966 2921 2902 2826 2973 3001 2894 2886 2835 2975 3015 2971 2902 2955 2903 2870 2886 2982 2877 2970 2936 2899 2892 2978 2994 3045 2876 2979 2992 2939 2924 2926 3018 2963 2883 2945 3030 2819 2898 2832 2878 2893 2987 2919 2985 2977 2880 2908 2966 2902 2953 2887 3036 2934 2893 2857 2872 2975 2921 2898 3015 3044 2864 2974 2970 2917 2819 2974 2809 2836 2902 2913 2928 2921 2883 2974 2945 2886 2842 2829 2871 2983 2946 2894 2893 3001 2855 3015 2951 2863 2928 2880 2856 2834 2820 2844 2825 2880 2833 2819 2855 2823 2875 2998 2957 2986 2946 3042 3000 2851 2900 2985 2858 3004 2986 2990 2945 2978 2957 2927 2934 2906 2967 2808 3023 2823 3022 2986 2869 2832 3064 2942 2983 2980 2886 2888 2833 2940 2833 2850 2942 2813 2989 2930 2985 2938 2823 2890 2819 2916 2869 2892 2854 2975 2999 2952 3014 2893 2870 3011 2900 2927 2881 3021 3005 3074 3039 2913 2984 2997 3090 2933 2977 2989 2885 2824 2870 2913 2860 2885 2947 2976 2956 2989 2884 2843 2947 2934 2959 2951 2975 2850 2961 2837 3023 2886 2864 2905 3001 2925 3004 3093 2965 2974 2844 2921 2934 2823 2949 2982 2856 2989 2927

Tree=0
num_leaves=31
num_cat=0
split_feature=14 14 14 14 14 16 15 14 14 16 14 14 14 15 14 16 20 18 16 17 16 14 16 14 15 17 14 14 7 16
split_gain=1.74344e+09 4.80362e+08 3.43283e+08 9.80208e+07 9.17877e+07 4.07442e+07 3.10072e+07 1.53098e+07 1.52644e+07 1.49686e+07 1.42776e+07 1.34919e+07 9.53132e+06 5.63588e+06 4.43241e+06 3.50014e+06 3.25557e+06 2.91052e+06 2.87625e+06 2.67234e+06 2.66305e+06 2.54195e+06 2.24009e+06 2.10552e+06 1.9671e+06 2.10642e+06 1.91068e+06 1.82566e+06 1.57104e+06 1.48304e+06
threshold=201.60500000000002 62.570000000000007 353.04500000000007 116.03000000000002 35.32 531.54811246339716 -17.445000000000004 84.095000000000013 24.040000000000003 108.99311246339714 471.3300000000001 47.82 288.39000000000004 -79.234999999999971 711.46500000000015 57.054056231698574 -26.034999999999993 689.42000000000007 207.10905623169856 72.990000000000023 17.134056231698562 30.985000000000003 150.64811246339715 308.78000000000003 -43.995000000000012 585.62500000000011 16.230000000000004 133.74000000000004 18.604055049523819 3.4700000000000011
decision_type=2 2 2 2 2 2 2 2 2 2 2 2 2 2 2 2 2 2 2 2 2 2 2 2 2 2 2 2 2 2
left_child=1 4 6 7 8 10 23 19 26 16 13 29 18 -4 -7 -9 -5 24 -8 -3 -13 -10 -11 -2 25 -12 -1 -18 -22 -6
right_child=2 3 5 9 11 14 12 15 21 22 17 20 -14 -15 -16 -17 27 -19 -20 -21 28 -23 -24 -25 -26 -27 -28 -29 -30 -31
leaf_value=50.51069216614593 58.365933960976243 53.208330096913116 65.456930869939839 55.259814656802945 51.794292261863539 80.242296901420303 61.543268876825053 54.221969702733368 51.20142307736706 58.077111395452924 69.18388137768261 52.41000782782146 66.152672912411163 70.896489888765643 86.592957725073802 55.080735411008177 56.008220410087503 77.538700460471432 63.392656699426318 53.750047556930298 52.8882203523561 51.51900176721373 60.363840212277481 61.354108368759995 74.484187550736138 73.856024934968133 50.855731987380707 56.985724874774853 66.905586126016374 52.077041840107668
leaf_weight=62969 5590 53889 629 8240 121325 868 4649 39299 147286 8665 421 121341 2085 1960 402 16997 10643 595 3838 39419 36727 110118 1222 659 2598 565 110585 8666 20 75071
leaf_count=62969 5590 53889 629 8240 121325 868 4649 39299 147286 8665 421 121341 2085 1960 402 16997 10643 595 3838 39419 36727 110118 1222 659 2598 565 110585 8666 20 75071
internal_value=52.4597 52.1254 65.5349 54.4026 51.5832 74.0347 61.4733 53.8301 51.0929 56.6908 72.4926 52.1791 63.1237 69.5749 82.2525 54.4812 56.0919 74.3002 62.3796 53.4372 52.5229 51.3373 58.3597 58.6811 73.7626 71.8611 50.7305 56.4469 52.8958 51.9024
internal_weight=0 972482 24859 187040 785442 8038 16821 149604 430958 37436 6768 354484 10572 2589 1270 56296 27549 4179 8487 93308 158088 257404 9887 6249 3584 986 173554 19309 36747 196396
internal_count=997341 972482 24859 187040 785442 8038 16821 149604 430958 37436 6768 354484 10572 2589 1270 56296 27549 4179 8487 93308 158088 257404 9887 6249 3584 986 173554 19309 36747 196396
is_linear=0
shrinkage=1


Tree=1
num_leaves=31
num_cat=0
split_feature=14 14 14 14 14 16 15 14 14 16 14 14 14 15 14 16 20 18 16 17 16 16 14 17 14 15 17 17 7 15
split_gain=1.57345e+09 4.33526e+08 3.09813e+08 8.84638e+07 8.28384e+07 3.67716e+07 2.7984e+07 1.38171e+07 1.38134e+07 1.35139e+07 1.28855e+07 1.21765e+07 8.60202e+06 5.08639e+06 4.00025e+06 3.17121e+06 2.73109e+06 2.62674e+06 2.59581e+06 2.41179e+06 2.40341e+06 2.18799e+06 2.18011e+06 1.90271e+06 1.90023e+06 1.7753e+06 1.90105e+06 1.48252e+06 1.41786e+06 1.34104e+06
threshold=201.60500000000002 62.570000000000007 353.04500000000007 116.03000000000002 35.32 531.54811246339716 -17.445000000000004 84.095000000000013 24.735000000000003 106.08905623169856 471.3300000000001 47.82 288.39000000000004 -79.234999999999971 711.46500000000015 58.918112463397129 -26.034999999999993 689.42000000000007 207.10905623169856 72.990000000000023 17.134056231698562 150.64811246339715 18.395000000000003 30.985000000000003 308.78000000000003 -43.995000000000012 585.62500000000011 133.74000000000004 18.604055049523819 -10.41
decision_type=2 2 2 2 2 2 2 2 2 2 2 2 2 2 2 2 2 2 2 2 2 2 2 2 2 2 2 2 2 2
left_child=1 4 6 7 8 10 24 19 22 16 13 -6 18 -4 -7 29 -5 25 -8 -3 -13 -11 -1 -10 -2 26 -12 -18 -22 -9
right_child=2 3 5 9 11 14 12 15 23 21 17 20 -14 -15 -16 -17 27 -19 -20 -21 28 -23 -24 -25 -26 -27 -28 -29 -30 -31
leaf_value=-1.7857616209608975 5.6109512904035812 0.71122763890509466 12.347397837919347 2.66013808162467 -0.52943320176933373 26.393494802026705 8.6294193225974656 1.0803815541046751 -1.1756025627076745 5.2615428949406784 15.888001278856871 -0.047178499977266475 13.008352498665131 17.514979049526914 32.426623277047376 2.5313305743887753 3.3741797263018563 23.825079025140329 10.386338080584601 1.2258592231232459 0.40712339023597433 7.5089620630791849 -1.4472694065434879 -0.89337790238242443 8.4497169158889243 20.923291335131594 20.326537410769845 4.2823860135915996 13.723620719909668 1.8245214211320846
leaf_weight=95278 5590 53889 629 8240 196396 868 4649 7391 130754 9519 421 121341 2085 1960 402 15426 10718 595 3838 39419 36727 1222 94997 109929 659 2598 565 7737 20 33479
leaf_count=95278 5590 53889 629 8240 196396 868 4649 7391 130754 9519 421 121341 2085 1960 402 15426 10718 595 3838 39419 36727 1222 94997 109929 659 2598 565 7737 20 33479
internal_value=0 -0.317523 12.4215 1.84583 -0.832689 20.4963 8.56292 1.30188 -1.29839 4.01959 19.0313 -0.266518 10.1309 16.2595 28.3032 1.9205 3.417 20.7485 9.42393 0.928639 0.0601071 5.51723 -1.61677 -1.0467 5.91032 20.2377 18.4314 3.75493 0.414371 1.68995
internal_weight=0 972482 24859 187040 785442 8038 16821 149604 430958 37436 6768 354484 10572 2589 1270 56296 26695 4179 8487 93308 158088 10741 190275 240683 6249 3584 986 18455 36747 40870
internal_count=997341 972482 24859 187040 785442 8038 16821 149604 430958 37436 6768 354484 10572 2589 1270 56296 26695 4179 8487 93308 158088 10741 190275 240683 6249 3584 986 18455 36747 40870
is_linear=0
shrinkage=0.05


Tree=2
num_leaves=31
num_cat=0
split_feature=14 14 14 14 14 16 15 16 14 14 14 14 14 15 14 16 20 17 20 16 16 14 16 14 14 16 14 7 14 15
split_gain=1.42004e+09 3.91258e+08 2.79606e+08 8.00213e+07 7.48842e+07 3.31864e+07 2.52556e+07 1.40309e+07 1.34939e+07 1.16292e+07 1.06074e+07 9.86438e+06 7.76332e+06 4.59046e+06 3.61023e+06 2.96334e+06 2.62336e+06 2.3784e+06 2.6034e+06 2.34272e+06 2.16907e+06 2.01207e+06 1.97591e+06 1.96958e+06 1.89012e+06 1.80905e+06 1.71496e+06 1.27962e+06 1.2367e+06 1.17178e+06
threshold=201.60500000000002 62.570000000000007 353.04500000000007 110.04500000000002 36.365000000000009 531.54811246339716 -17.445000000000004 106.08905623169856 24.735000000000003 471.3300000000001 81.835000000000022 47.82 288.39000000000004 -79.234999999999971 711.46500000000015 53.759056231698573 -18.314999999999998 669.8900000000001 -53.374999999999993 207.10905623169856 17.134056231698562 30.985000000000003 160.12500000000003 17.875000000000004 130.09000000000003 34.579056231698573 308.78000000000003 18.604055049523819 147.27500000000003 -8.8499999999999961
decision_type=2 2 2 2 2 2 2 2 2 2 2 2 2 2 2 2 2 2 2 2 2 2 2 2 2 2 2 2 2 2
left_child=1 4 6 10 8 9 26 16 23 13 25 -6 19 -4 -7 29 28 18 -11 -8 -13 -10 -9 -1 -18 -3 -2 -22 -5 -12
right_child=2 3 5 7 11 14 12 22 21 17 15 20 -14 -15 -16 -17 24 -19 -20 -21 27 -23 -24 -25 -26 -27 -28 -29 -30 -31
leaf_value=-1.7025328731459994 5.3304039550126134 0.69340707174684124 11.730028348355681 2.0884379348322106 -0.48314798060399194 25.073820119409518 8.1979488330955128 5.0204137805255318 -1.1170676713715115 16.424332544854348 0.92222039250926591 -0.044819579132477159 12.357935382650911 16.639229842983948 30.805291489938003 2.2578949568056621 3.0764965226809107 22.143750956970969 19.841210738173476 9.8670212352567823 0.38676722409366399 -0.83642117516987813 7.3131488719353319 -1.3806015580583122 4.0487225495838688 1.182550881607918 8.0272314827069522 13.037439336776735 3.2907394071660327 1.6127841442727791
leaf_weight=91804 5590 58997 629 6699 181498 868 4649 9746 130565 705 7530 121341 2085 1960 402 17841 12591 810 2664 3838 36727 125016 1040 98471 8291 27814 659 20 3142 33349
leaf_count=91804 5590 58997 629 6699 181498 868 4649 9746 130565 705 7530 121341 2085 1960 402 17841 12591 810 2664 3838 36727 125016 1040 98471 8291 27814 659 20 3142 33349
internal_value=0 -0.301647 11.8004 1.75354 -0.791055 19.4714 8.13478 3.69001 -1.21713 18.0797 1.20121 -0.231645 9.62431 15.4465 26.888 1.72023 3.14533 19.7111 19.1262 8.95274 0.0571017 -0.979791 5.24148 -1.53593 3.46251 0.850127 5.6148 0.393653 2.4723 1.48558
internal_weight=0 972482 24859 187040 785442 8038 16821 41509 445856 6768 145531 339586 10572 2589 1270 58720 30723 4179 3369 8487 158088 255581 10786 190275 20882 86811 6249 36747 9841 40879
internal_count=997341 972482 24859 187040 785442 8038 16821 41509 445856 6768 145531 339586 10572 2589 1270 58720 30723 4179 3369 8487 158088 255581 10786 190275 20882 86811 6249 36747 9841 40879
is_linear=0
shrinkage=0.05


Tree=3
num_leaves=31
num_cat=0
split_feature=14 14 14 14 14 16 15 16 14 14 14 14 14 15 14 16 15 16 18 14 17 14 16 16 14 15 17 16 20 14
split_gain=1.28159e+09 3.5311e+08 2.52345e+08 7.22192e+07 6.7583e+07 2.99507e+07 2.29134e+07 1.26977e+07 1.21783e+07 1.04953e+07 9.59228e+06 8.92891e+06 7.87497e+06 4.14289e+06 3.25823e+06 2.65843e+06 2.55319e+06 2.31306e+06 2.17743e+06 2.00197e+06 1.82203e+06 1.79218e+06 1.76819e+06 1.64918e+06 1.60112e+06 1.47354e+06 1.62706e+06 1.3439e+06 1.24252e+06 1.11816e+06
threshold=201.60500000000002 62.570000000000007 353.04500000000007 110.04500000000002 36.365000000000009 531.54811246339716 -36.709999999999987 108.99311246339714 24.735000000000003 471.3300000000001 84.095000000000013 48.515000000000008 288.39000000000004 -79.234999999999971 711.46500000000015 207.10905623169856 -0.25999999999999795 56.748112463397128 689.42000000000007 74.550000000000011 31.850000000000005 17.095000000000002 19.095000000000006 150.64811246339715 133.74000000000004 -43.995000000000012 585.62500000000011 4.2840562316985613 51.285000000000011 219.82500000000002
decision_type=2 2 2 2 2 2 2 2 2 2 2 2 2 2 2 2 2 2 2 2 2 2 2 2 2 2 2 2 2 2
left_child=1 4 6 10 8 9 -2 16 21 13 19 27 15 -4 -7 29 -5 -12 25 -3 -10 -1 -13 -9 -18 26 -11 -6 -24 -8
right_child=2 3 5 7 11 14 12 23 20 18 17 22 -14 -15 -16 -17 24 -19 -20 -21 -22 -23 28 -25 -26 -27 -28 -29 -30 -31
leaf_value=-1.6721879838660858 5.1321598595763938 0.65310314460183461 11.143526274373308 2.491248777780394 -0.54828375720930123 23.820129018335301 6.5551694414421933 4.8234790124904139 -1.0444338414859446 14.26183306225122 1.4494794305895882 -0.0097956280074564962 11.705683574161014 15.807268779910343 29.265026597359878 9.3736702428502667 3.0238801478433146 2.1564118072640261 21.526636947503611 1.1284107093604705 -0.77395865499872685 -1.3486101025972601 0.42383675154020861 6.7849306025403608 3.9847928879757237 18.885066542651124 18.368077196779506 -0.27747089624602234 12.311113357543945 8.139824906119193
leaf_weight=64990 5647 57117 629 13395 118304 868 1637 8710 148206 421 34917 118730 2220 1960 402 3838 11047 17306 595 36191 107375 125285 27770 1222 7135 2598 565 74760 22 3479
leaf_count=64990 5647 57117 629 13395 118304 868 1637 8710 148206 421 34917 118730 2220 1960 402 3838 11047 17306 595 36191 107375 125285 27770 1222 7135 2598 565 74760 22 3479
internal_value=0 -0.286565 11.2104 1.66586 -0.751502 18.4979 7.72804 3.50551 -1.15627 17.1757 1.14114 -0.220062 9.03992 14.6742 25.5436 8.37898 3.01506 1.68375 18.7255 0.837459 -0.930801 -1.45913 0.0742397 5.06481 3.40096 18.2605 16.6148 -0.443417 0.433247 7.63277
internal_weight=0 972482 24859 187040 785442 8038 16821 41509 445856 6768 145531 339586 11174 2589 1270 8954 31577 52223 4179 93308 255581 190275 146522 9932 18182 3584 986 193064 27792 5116
internal_count=997341 972482 24859 187040 785442 8038 16821 41509 445856 6768 145531 339586 11174 2589 1270 8954 31577 52223 4179 93308 255581 190275 146522 9932 18182 3584 986 193064 27792 5116
is_linear=0
shrinkage=0.05


Tree=4
num_leaves=31
num_cat=0
split_feature=14 14 14 14 14 16 15 14 16 14 14 14 14 15 14 15 16 16 16 14 17 20 16 16 14 14 15 16 9 16
split_gain=1.15663e+09 3.18684e+08 2.27741e+08 6.50534e+07 6.14866e+07 2.70305e+07 2.06793e+07 1.148e+07 1.00109e+07 9.47202e+06 8.8054e+06 8.6486e+06 7.10716e+06 3.73896e+06 3.03089e+06 2.40482e+06 2.39923e+06 2.39674e+06 2.23225e+06 2.15096e+06 1.96808e+06 2.15371e+06 1.39475e+06 1.34402e+06 1.32825e+06 1.31868e+06 1.19183e+06 1.14407e+06 1.13168e+06 1.02574e+06
threshold=201.60500000000002 65.435000000000016 353.04500000000007 37.57500000000001 116.03000000000002 531.54811246339716 -36.709999999999987 23.520000000000003 113.67811246339714 471.3300000000001 48.515000000000008 84.095000000000013 288.39000000000004 -79.234999999999971 758.24000000000012 -26.034999999999993 207.10905623169856 60.529056231698569 19.095000000000006 30.985000000000003 669.8900000000001 -53.374999999999993 36.224056231698562 160.12500000000003 133.74000000000004 16.230000000000004 -10.41 5.2490562316985612 17.005472259381062 241.51311246339716
decision_type=2 2 2 2 2 2 2 2 2 2 2 2 2 2 2 2 2 2 2 2 2 2 2 2 2 2 2 2 2 2
left_child=1 3 6 7 11 9 -2 25 15 13 27 22 16 -4 -7 -6 -8 26 -12 -9 21 -11 -3 -10 -17 -1 -13 -5 -20 -22
right_child=2 4 5 10 8 14 12 19 23 20 18 17 -14 -15 -16 24 -18 -19 28 -21 29 -23 -24 -25 -26 -27 -28 -29 -30 -31
leaf_value=-1.5935042208760759 4.8755520267868242 0.69369573119914074 10.586350064664273 -0.48733840349997781 2.2926901965355806 23.241936320552121 7.2511334666803169 -1.0243871732475911 4.6949189492922043 14.799744422385032 -0.0055834328592291463 0.89611962435261572 11.120399783710102 15.016904708706603 30.090005493164064 2.9112086878383439 8.9049866283231882 2.2678452436171246 0.43525218576549057 -0.74736149452651957 18.715934179779282 17.907540563634925 1.128625481017884 6.6082447913976825 3.7266405288235127 -1.306518846439102 1.5906324164230932 -0.20764484788602455 12.045689837137859 22.463540649414064
leaf_weight=62969 5647 54545 629 134846 8536 1080 5116 148003 7814 705 121278 7425 2220 1960 190 10616 3838 12112 36144 133071 532 2664 27842 1040 9430 109868 36759 50163 21 278
leaf_count=62969 5647 54545 629 134846 8536 1080 5116 148003 7814 705 121278 7425 2220 1960 190 10616 3838 12112 36144 133071 532 2664 27842 1040 9430 109868 36759 50163 21 278
internal_value=0 -0.272237 10.6499 -0.697891 1.65246 17.573 7.34164 -1.09041 3.4506 16.317 -0.177614 1.16707 8.58792 13.9405 24.2665 2.99552 7.96003 1.64473 0.0972261 -0.893233 17.7892 17.2572 0.840677 4.91966 3.2948 -1.41108 1.47392 -0.411503 0.441994 20.0021
internal_weight=0 972482 24859 796363 176119 8038 16821 453911 37436 6768 342452 138683 11174 2589 1270 28582 8954 56296 157443 281074 4179 3369 82387 8854 20046 172837 44184 185009 36165 810
internal_count=997341 972482 24859 796363 176119 8038 16821 453911 37436 6768 342452 138683 11174 2589 1270 28582 8954 56296 157443 281074 4179 3369 82387 8854 20046 172837 44184 185009 36165 810
is_linear=0
shrinkage=0.05


Tree=5
num_leaves=31
num_cat=0
split_feature=14 14 14 14 14 16 15 14 16 14 14 14 17 15 14 16 16 20 16 14 15 14 16 14 16 15 14 15 14 7
split_gain=1.04386e+09 2.87728e+08 2.05536e+08 5.8975e+07 5.50966e+07 2.43951e+07 1.8709e+07 1.14584e+07 1.03283e+07 8.5485e+06 7.836e+06 6.26889e+06 5.70129e+06 3.37441e+06 2.75943e+06 2.73995e+06 2.20384e+06 2.13556e+06 1.94463e+06 1.77651e+06 1.95968e+06 1.53795e+06 1.4636e+06 1.41142e+06 1.35614e+06 1.18977e+06 1.1035e+06 1.07914e+06 1.0452e+06 1.01108e+06
threshold=201.60500000000002 62.570000000000007 353.04500000000007 110.04500000000002 33.935000000000009 531.54811246339716 -17.445000000000004 45.735000000000007 108.99311246339714 471.3300000000001 79.410000000000011 22.130000000000003 288.39000000000004 -79.234999999999971 711.46500000000015 53.759056231698573 15.394056231698562 -18.314999999999998 226.23811246339716 669.8900000000001 -53.374999999999993 130.09000000000003 1.040000000000002 308.78000000000003 135.25405623169863 -8.8499999999999961 157.51500000000001 -9.8049999999999979 328.39500000000004 18.604055049523819
decision_type=2 2 2 2 2 2 2 2 2 2 2 2 2 2 2 2 2 2 2 2 2 2 2 2 2 2 2 2 2 2
left_child=1 4 6 10 11 9 23 22 17 13 -3 -1 18 -4 -7 27 25 26 -8 20 -11 -19 -6 -2 -10 -9 -5 -12 -14 -18
right_child=2 3 5 8 7 14 12 16 24 19 15 -13 28 -15 -16 -17 29 21 -20 -21 -22 -23 -24 -25 -26 -27 -28 -29 -30 -31
leaf_value=-1.3816815062412875 4.5476308764797206 0.66960409460508397 10.057032590299039 1.7887295580689579 -0.65077622239050659 21.467026906518896 7.3052000824131573 -0.63617706852419442 4.3366515719304317 14.139963009134929 0.69938968499470322 -0.95887596619962745 9.8368793751187997 14.26605937179254 26.477845878031719 1.9394485341333643 0.28026019315815059 2.6421348244569574 9.2015670604513602 18.997413781648191 17.039112607856776 3.4940746584767655 -0.39791211451375513 6.9941880586476532 6.0196836805891714 -0.05913118995582798 2.9778334341682133 1.3204964722474466 12.243099112381028 11.524565744400025
leaf_weight=143540 5590 74140 629 7159 112111 868 6805 9610 8540 750 8272 225238 1418 1960 402 17877 51284 12591 1687 813 2616 9145 116890 659 1392 126749 2682 45242 662 20
leaf_count=143540 5590 74140 629 7159 112111 868 6805 9610 8540 750 8272 225238 1418 1960 402 17877 51284 12591 1687 813 2616 9145 116890 659 1392 126749 2682 45242 662 20
internal_value=0 -0.258625 10.1174 1.5038 -0.678316 16.6943 6.97455 -0.284345 3.16623 15.5011 1.02963 -1.12345 8.25658 13.2435 23.0531 1.40352 0.00530139 2.7239 7.68193 16.8998 16.3931 3.00057 -0.521706 4.80564 4.57253 -0.0997989 2.1128 1.22449 10.6027 0.284644
internal_weight=0 972482 24859 187040 785442 8038 16821 416664 41509 6768 145531 368778 10572 2589 1270 71391 187663 31577 8492 4179 3366 21736 229001 6249 9932 136359 9841 53514 2080 51304
internal_count=997341 972482 24859 187040 785442 8038 16821 416664 41509 6768 145531 368778 10572 2589 1270 71391 187663 31577 8492 4179 3366 21736 229001 6249 9932 136359 9841 53514 2080 51304
is_linear=0
shrinkage=0.05


Tree=6
num_leaves=31
num_cat=0
split_feature=14 14 14 14 14 16 15 14 16 14 14 14 14 15 14 16 15 16 16 18 14 15 16 14 16 15 17 14 16 16
split_gain=9.42083e+08 2.59784e+08 1.85496e+08 5.30563e+07 5.01415e+07 2.20165e+07 1.69518e+07 9.18506e+06 8.17773e+06 7.71502e+06 7.54215e+06 7.09491e+06 5.81818e+06 3.04541e+06 2.56867e+06 2.13768e+06 1.96788e+06 1.9437e+06 1.84568e+06 1.62831e+06 1.47072e+06 1.4188e+06 1.2244e+06 1.15865e+06 1.10809e+06 1.10686e+06 1.41639e+06 1.09053e+06 1.08324e+06 1.00489e+06
threshold=201.60500000000002 65.435000000000016 353.04500000000007 37.230000000000011 116.03000000000002 531.54811246339716 -36.709999999999987 25.255000000000006 113.67811246339714 471.3300000000001 48.515000000000008 84.530000000000015 288.39000000000004 -79.234999999999971 758.24000000000012 199.9040562316986 -26.034999999999993 60.529056231698569 20.643112463397124 689.42000000000007 18.395000000000003 4.8600000000000021 36.224056231698562 144.41000000000003 160.12500000000003 -53.374999999999993 585.62500000000011 29.245000000000001 226.23811246339716 3.4700000000000011
decision_type=2 2 2 2 2 2 2 2 2 2 2 2 2 2 2 2 2 2 2 2 2 2 2 2 2 2 2 2 2 2
left_child=1 3 6 7 11 9 -2 20 16 13 29 22 15 -4 -7 -8 -6 -13 -12 25 -1 27 -3 -18 -10 26 -11 -9 -17 -5
right_child=2 4 5 10 8 14 12 21 24 19 18 17 -14 -15 -16 28 23 -19 -20 -21 -22 -23 -24 -25 -26 -27 -28 -29 -30 -31
leaf_value=-1.3895741221354472 4.393041547336515 0.62276018799571087 9.5541814382580394 -0.47883423708079742 2.0687695727241073 20.957308222452802 5.8991781720423582 -0.95420842551032392 4.2395496272723454 11.943549356152936 0.0031172221821910216 1.3353975356341055 10.045558880299062 13.552756759487853 27.261611938476562 7.273474334268009 2.7811429477816176 2.0518631308365372 0.43133337540410505 18.477088715368961 -1.1140197001798029 -0.2104516176821484 1.0262584839934215 3.7195856423213565 5.9768485645147473 16.187156431098963 15.823465689600042 -0.7352459633679489 8.7429447825693156 -0.2476080750955747
leaf_weight=95278 5647 54545 629 108390 8536 1080 2372 90348 7814 403 126000 43336 2220 1960 190 4896 15899 12112 31443 595 98468 10059 28690 4147 1040 2616 565 153432 1686 82945
leaf_count=95278 5647 54545 629 108390 8536 1080 2372 90348 7814 403 126000 43336 2220 1960 190 4896 15899 12112 31443 595 98468 10059 28690 4147 1040 2616 565 153432 1686 82945
internal_value=0 -0.245694 9.61151 -0.630005 1.49206 15.8596 6.62583 -0.990268 3.11586 14.7261 -0.167681 1.05373 7.75421 12.5813 21.9005 7.18611 2.70455 1.4919 0.0886364 16.0548 -1.24953 -0.792384 0.761841 2.97528 4.44361 15.6527 14.2082 -0.816396 7.64988 -0.378596
internal_weight=0 972482 24859 796363 176119 8038 16821 447585 37436 6768 348778 138683 11174 2589 1270 8954 28582 55448 157443 4179 193746 253839 83235 20046 8854 3584 968 243780 6582 191335
internal_count=997341 972482 24859 796363 176119 8038 16821 447585 37436 6768 348778 138683 11174 2589 1270 8954 28582 55448 157443 4179 193746 253839 83235 20046 8854 3584 968 243780 6582 191335
is_linear=0
shrinkage=0.05


Tree=7
num_leaves=31
num_cat=0
split_feature=14 14 14 14 14 16 15 14 16 14 17 14 14 15 14 16 15 16 15 14 14 17 14 14 14 15 15 16 15 14
split_gain=8.5023e+08 2.34455e+08 1.67411e+08 4.79429e+07 4.52527e+07 1.98699e+07 1.53037e+07 9.19819e+06 7.4172e+06 6.9628e+06 6.4047e+06 5.83371e+06 5.48019e+06 2.74848e+06 2.33694e+06 2.18672e+06 2.02945e+06 1.75417e+06 1.67174e+06 1.5528e+06 1.47084e+06 1.32771e+06 1.29905e+06 1.16833e+06 1.15265e+06 1.08599e+06 1.01303e+06 977619 951951 946295
threshold=201.60500000000002 65.435000000000016 353.04500000000007 38.100000000000001 116.03000000000002 531.54811246339716 -43.995000000000012 25.255000000000006 118.62811246339713 471.3300000000001 84.530000000000015 50.07500000000001 288.39000000000004 -79.234999999999971 711.46500000000015 199.9040562316986 -26.034999999999993 63.778112463397129 8.8500000000000068 32.715000000000011 689.42000000000007 18.395000000000003 144.41000000000003 57.015000000000008 72.990000000000023 -172.69999999999996 -10.41 226.23811246339716 38.615000000000016 157.51500000000001
decision_type=2 2 2 2 2 2 2 2 2 2 2 2 2 2 2 2 2 2 2 2 2 2 2 2 2 2 2 2 2 2
left_child=1 3 6 7 10 9 -2 21 16 13 24 -5 15 -4 -7 -8 29 26 23 -9 25 -1 -18 -13 -3 -11 -12 -17 -14 -6
right_child=2 4 5 11 8 14 12 19 -10 20 17 18 28 -15 -16 27 22 -19 -20 -21 -22 -23 -24 -25 -26 -27 -28 -29 -30 -31
leaf_value=-1.3198606507817106 4.1181748121589106 0.54358940239025078 9.076472240259994 -0.32848240862561573 1.6181344546024818 19.345809560327488 5.5303554051208499 -0.84019142155398585 4.4674770278361313 11.358597573867211 0.74332904715182979 -0.041408371546454215 9.2249810051747314 12.875118514858947 23.957106374863962 6.9098009333891035 2.649445478862658 1.9861791582054238 1.0084655934577142 -0.5999119025868449 17.523183635342104 -1.0580540157205003 3.5081703972726141 0.25477743982031487 0.91555811371979845 15.081534905918719 1.3851937790149333 8.3057972827698698 12.94823186537799 2.7369458495867351
leaf_weight=95463 5457 42870 629 178190 5828 868 2500 156698 6700 208 7371 93355 2095 1960 402 4896 16040 10913 4844 117778 609 98283 6071 51752 40505 3362 37024 1686 187 2797
leaf_count=95463 5457 42870 629 178190 5828 868 2500 156698 6700 208 7371 93355 2095 1960 402 4896 16040 10913 4844 117778 609 98283 6071 51752 40505 3362 37024 1686 187 2797
internal_value=0 -0.233409 9.13094 -0.598505 1.41746 15.0666 6.29454 -0.923279 2.96007 13.9898 1.00105 -0.135087 7.33963 11.9522 20.8054 6.78924 2.63147 1.41823 0.0947281 -0.737087 15.2521 -1.18705 2.88522 0.0642255 0.724298 14.8646 1.27862 7.26739 9.53009 1.98095
internal_weight=0 972482 24859 796363 176119 8038 16821 468222 37436 6768 138683 328141 11364 2589 1270 9082 30736 55308 149951 274476 4179 193746 22111 145107 83375 3570 44395 6582 2282 8625
internal_count=997341 972482 24859 796363 176119 8038 16821 468222 37436 6768 138683 328141 11364 2589 1270 9082 30736 55308 149951 274476 4179 193746 22111 145107 83375 3570 44395 6582 2282 8625
is_linear=0
shrinkage=0.05


Tree=8
num_leaves=31
num_cat=0
split_feature=14 14 14 14 14 16 15 14 16 14 14 14 14 15 14 15 15 14 14 14 20 16 15 16 16 14 14 15 7 14
split_gain=7.67393e+08 2.15832e+08 1.44912e+08 4.44341e+07 4.20206e+07 1.79326e+07 1.42943e+07 8.3398e+06 7.60008e+06 6.28393e+06 5.60722e+06 5.41413e+06 4.095e+06 2.48412e+06 2.17699e+06 1.86495e+06 1.83774e+06 1.72054e+06 1.71756e+06 1.35179e+06 1.56137e+06 1.31826e+06 1.31223e+06 1.31191e+06 1.12384e+06 1.01859e+06 980779 973245 961417 914516
threshold=207.76500000000001 65.870000000000019 353.04500000000007 38.100000000000001 116.03000000000002 531.54811246339716 -36.709999999999987 26.645000000000003 118.62811246339713 471.3300000000001 51.115000000000009 89.910000000000011 288.39000000000004 -26.034999999999993 758.24000000000012 -10.41 -0.25999999999999795 18.395000000000003 75.675000000000011 669.8900000000001 -53.374999999999993 20.643112463397124 6.9400000000000039 226.23811246339716 7.4140562316985585 139.81000000000003 403.38000000000005 -9.8049999999999979 67.585959552050454 147.27500000000003
decision_type=2 2 2 2 2 2 2 2 2 2 2 2 2 2 2 2 2 2 2 2 2 2 2 2 2 2 2 2 2 2
left_child=1 3 6 7 11 9 -2 17 16 13 24 18 23 -4 -7 -13 29 -1 -3 20 -11 27 -9 -8 -5 -18 -15 -12 -26 -6
right_child=2 4 5 10 8 14 12 22 -10 19 21 15 -14 26 -16 -17 25 -19 -20 -21 -22 -23 -24 -25 28 -27 -28 -29 -30 -31
leaf_value=-1.2541273659660503 4.0046270026144652 0.54796722956027455 8.9064451882645894 -0.37199776575559129 1.7124077603601215 18.896894161083079 6.3265024986389413 -0.68881276738610409 4.2835516882952103 11.94969718748348 -0.49925570645294964 0.76923679385356125 9.0663505904738972 11.055674894765957 24.700677490234376 1.7169365122970057 2.5484521096717607 -0.97673717835714879 0.96444489627057273 16.319235047437754 14.60029600590199 0.38748520029326322 0.037697107960439839 7.890507213642306 -0.11011289636460489 3.3279035981846605 13.371448217199552 0.075954181908573254 10.590236081395831 2.6222448123325557
leaf_weight=95278 5463 42741 740 137723 8033 1080 6549 231295 7417 702 7962 6474 2220 828 190 26198 12330 135262 58828 813 2664 34786 6387 1686 55828 6350 1021 96263 21 4209
leaf_count=95278 5463 42741 740 137723 8033 1080 6549 231295 7417 702 7962 6474 2220 828 190 26198 12330 135262 58828 813 2664 34786 6387 1686 55828 6350 1021 96263 21 4209
internal_value=0 -0.217581 8.84081 -0.563216 1.38623 14.3133 6.07741 -0.877115 2.84615 13.2903 -0.121299 0.969282 7.16049 11.3546 19.7652 1.52915 2.50137 -1.09138 0.789188 14.4895 14.0475 0.120966 -0.66929 6.64671 -0.295278 2.81342 12.3344 0.0320125 -0.106089 2.02522
internal_weight=0 973385 23956 800805 172580 8038 15918 468222 38339 6768 332583 134241 10455 2589 1270 32672 30922 230540 101569 4179 3366 139011 237682 8235 193572 18680 1849 104225 55849 12242
internal_count=997341 973385 23956 800805 172580 8038 15918 468222 38339 6768 332583 134241 10455 2589 1270 32672 30922 230540 101569 4179 3366 139011 237682 8235 193572 18680 1849 104225 55849 12242
is_linear=0
shrinkage=0.05


Tree=9
num_leaves=31
num_cat=0
split_feature=14 14 14 14 14 16 15 17 16 17 14 14 17 19 14 16 15 16 16 17 19 13 16 14 15 16 16 14 20 16
split_gain=6.92615e+08 1.91069e+08 1.36328e+08 3.93884e+07 3.6967e+07 1.61842e+07 1.25355e+07 7.65537e+06 6.82646e+06 5.67312e+06 5.26229e+06 4.18281e+06 3.77074e+06 2.24034e+06 1.97909e+06 1.90491e+06 1.62828e+06 1.57219e+06 1.27521e+06 1.21548e+06 1.40583e+06 1.13626e+06 1.05136e+06 1.0218e+06 987164 961732 924279 900299 890017 870294
threshold=201.60500000000002 62.570000000000007 353.04500000000007 110.04500000000002 33.935000000000009 531.54811246339716 -17.445000000000004 45.040000000000013 113.67811246339714 471.3300000000001 78.020000000000024 21.610000000000003 288.39000000000004 -81.314999999999984 711.46500000000015 51.453112463397126 -0.25999999999999795 15.394056231698562 226.23811246339716 669.8900000000001 -55.280000000000008 218.52500000000003 2.0799999999999996 129.13500000000002 -8.8499999999999961 160.12500000000003 135.25405623169863 328.39500000000004 54.410000000000018 241.51311246339716
decision_type=2 2 2 2 2 2 2 2 2 2 2 2 2 2 2 2 2 2 2 2 2 2 2 2 2 2 2 2 2 2
left_child=1 4 6 10 11 9 21 22 16 13 -3 -1 18 -4 -7 -12 -5 24 -8 20 -11 26 -6 -18 -9 -10 -2 -14 -19 -21
right_child=2 3 5 8 7 14 12 17 25 19 15 -13 27 -15 -16 -17 23 28 -20 29 -22 -23 -24 -25 -26 -27 -28 -29 -30 -31
leaf_value=-1.1352043298180694 3.3862014685299515 0.53709876272062018 8.1640452850983749 1.8277530172533656 -0.50603548015130762 17.433674245386083 5.958664470339067 -0.57228701149544159 3.6224960733907099 11.433440322875978 0.98032708675247349 -0.78716381451913331 7.9283108241803566 11.612255719573374 21.677252364277248 1.5520285961573506 2.1804221761373461 0.23591189814527019 7.4943245137592855 14.322544784832719 13.895570564415955 7.2298630077346617 -0.28210490360924573 2.9108873788728364 -0.046237085917375666 5.2404544749626751 4.7738594397992369 10.16151286122302 7.8907945532547803 17.774517822265626
leaf_weight=137874 4344 72702 618 13460 145578 868 6805 9584 7859 745 52689 230904 1418 1981 402 20140 9582 51189 1687 532 2614 247 81907 9568 128368 1040 1658 662 38 278
leaf_count=137874 4344 72702 618 13460 145578 868 6805 9584 7859 745 52689 230904 1418 1981 402 20140 9582 51189 1687 532 2614 247 81907 9568 128368 1040 1658 662 38 278
internal_value=0 -0.210666 8.24125 1.22553 -0.552673 13.5976 5.68167 -0.229965 2.58414 12.6258 0.838024 -0.917285 6.73107 10.7923 18.7769 1.13842 2.24918 0.00505227 6.26373 13.7687 13.3495 3.9063 -0.425408 2.54539 -0.0827836 3.81158 3.76953 8.63907 0.24159 15.5073
internal_weight=0 972482 24859 187040 785442 8038 16821 416664 41509 6768 145531 368778 10572 2599 1270 72829 32610 189179 8492 4169 3359 6249 227485 19150 137952 8899 6002 2080 51227 810
internal_count=997341 972482 24859 187040 785442 8038 16821 416664 41509 6768 145531 368778 10572 2599 1270 72829 32610 189179 8492 4169 3359 6249 227485 19150 137952 8899 6002 2080 51227 810
is_linear=0
shrinkage=0.05


Tree=10
num_leaves=31
num_cat=0
split_feature=14 14 14 14 17 16 15 16 14 14 14 14 14 15 14 20 15 16 19 14 15 14 14 20 17 14 16 14 15 14
split_gain=6.25324e+08 1.75933e+08 1.17947e+08 3.6313e+07 3.4236e+07 1.46062e+07 1.16798e+07 6.21202e+06 5.89715e+06 5.67236e+06 5.12133e+06 4.46396e+06 3.36548e+06 2.04849e+06 1.84508e+06 1.52008e+06 1.41728e+06 1.35995e+06 1.29297e+06 1.46221e+06 1.13456e+06 1.10448e+06 1.10135e+06 1.27666e+06 988464 964198 920288 911918 888310 884704
threshold=207.76500000000001 65.870000000000019 353.04500000000007 35.32 116.03000000000002 531.54811246339716 -36.709999999999987 118.62811246339713 48.515000000000008 22.825000000000003 471.3300000000001 86.265000000000015 308.78000000000003 -26.034999999999993 758.24000000000012 -26.034999999999993 9.7200000000000077 226.23811246339716 -7.6400000000000015 100.58500000000002 5.21 57.015000000000008 669.8900000000001 -53.374999999999993 133.74000000000004 13.365000000000002 37.969056231698573 29.245000000000001 -5.2099999999999964 403.38000000000005
decision_type=2 2 2 2 2 2 2 2 2 2 2 2 2 2 2 2 2 2 2 2 2 2 2 2 2 2 2 2 2 2
left_child=1 3 6 9 11 10 -2 15 28 25 13 26 17 -4 -7 -6 21 -8 -13 -20 27 -10 23 -12 -17 -1 -3 -11 -5 -15
right_child=2 4 5 8 7 14 12 -9 16 20 22 18 -14 29 -16 24 -18 -19 19 -21 -22 -23 -24 -25 -26 -27 -28 -29 -30 -31
leaf_value=-1.3608879970147798 3.6138749355757476 0.52097369479969136 8.0238574502274798 -0.74460177412188089 1.6891431175798406 17.038715777926978 5.7508087140264799 3.8715999318650249 -0.04461365736405553 -0.79907003448499525 10.781213331630088 0.64235788091283696 8.634884800836053 9.9222780789730063 22.381781005859377 2.1296717334884416 0.90321797369737333 7.2005718364230207 1.153168383777923 1.778474431090026 -0.13589620043927486 0.23205152060715042 14.728660512175802 13.177993290989967 2.7948853555209587 -1.0004111190905909 0.8681798955814447 -0.60789085312414115 -0.29595167429546726 12.121704538702147
leaf_weight=21198 5463 52491 740 11690 8485 1080 6805 7405 100548 113863 702 7720 1528 828 190 10754 5080 2122 30672 13448 9436 56257 813 2664 11617 148519 29988 137942 196272 1021
leaf_count=21198 5463 52491 740 11690 8485 1080 6805 7405 100548 113863 702 7720 1528 828 190 10754 5080 2122 30672 13448 9436 56257 813 2664 11617 148519 29988 137942 196272 1021
internal_value=0 -0.196411 7.98061 -0.508467 1.25159 12.9178 5.48753 2.57108 -0.145018 -0.820378 11.9945 0.875731 6.46657 10.247 17.8381 2.25898 0.0812741 6.09543 1.23931 1.34376 -0.674169 0.0546456 13.077 12.6781 2.47511 -1.04544 0.647212 -0.69434 -0.321171 11.1368
internal_weight=0 973385 23956 800805 172580 8038 15918 38261 369847 430958 6768 134319 10455 2589 1270 30856 161885 8927 51840 44120 261241 156805 4179 3366 22371 169717 82479 251805 207962 1849
internal_count=997341 973385 23956 800805 172580 8038 15918 38261 369847 430958 6768 134319 10455 2589 1270 30856 161885 8927 51840 44120 261241 156805 4179 3366 22371 169717 82479 251805 207962 1849
is_linear=0
shrinkage=0.05


Tree=11
num_leaves=31
num_cat=0
split_feature=14 14 14 14 17 16 15 14 16 17 16 14 14 19 14 14 19 19 14 18 15 16 18 17 15 15 17 15 19 9
split_gain=5.64355e+08 1.58779e+08 1.06447e+08 3.28796e+07 3.0898e+07 1.31821e+07 1.05655e+07 6.34949e+06 5.62166e+06 4.6244e+06 4.1201e+06 4.06116e+06 3.25356e+06 1.84548e+06 1.676e+06 1.56043e+06 1.46096e+06 1.4167e+06 1.38902e+06 1.29106e+06 1.07642e+06 1.07602e+06 1.00351e+06 984189 917854 912262 825305 790334 785922 717996
threshold=207.76500000000001 65.870000000000019 353.04500000000007 39.225000000000001 116.03000000000002 531.54811246339716 -43.995000000000012 26.815000000000001 124.95811246339713 471.3300000000001 13.664056231698561 89.910000000000011 288.39000000000004 -81.314999999999984 711.46500000000015 45.040000000000013 -6.8549999999999978 -26.034999999999993 18.395000000000003 75.675000000000011 7.9799999999999995 207.10905623169856 689.42000000000007 144.41000000000003 -7.4599999999999964 15.620000000000001 160.38000000000002 38.615000000000016 -172.69999999999996 17.005472259381062
decision_type=2 2 2 2 2 2 2 2 2 2 2 2 2 2 2 2 2 2 2 2 2 2 2 2 2 2 2 2 2 2
left_child=1 3 6 7 11 9 -2 18 17 13 15 19 21 -4 -7 -5 -13 26 -1 -3 -9 -8 28 -19 -17 -12 -6 -14 -11 -27
right_child=2 4 5 10 8 14 12 20 -10 22 25 16 27 -15 -16 24 -18 23 -20 -21 -22 -23 -24 -25 -26 29 -28 -29 -30 -31
leaf_value=-1.0806301690371494 3.382891383497534 0.47113430796706945 7.3539811853452024 -0.32131519961641036 1.2839217428253731 15.710055165796238 5.140835554765733 -0.58344637026764357 3.7388669517146904 9.2081067873462707 0.20405172970679586 0.67502258825169148 7.5151795034476851 10.483601859264576 19.615188461986943 -0.47567460149876023 1.489951767504345 2.1573736815926856 -0.83392895828188918 0.83108212364509326 0.090599587736974463 6.2789827707597778 14.327910599908911 2.8838353490503117 -0.033407221895526883 1.0773217654055378 2.3169806636804986 10.907682396383848 12.299601699669919 10.359591120765323
leaf_weight=95278 5273 43814 618 122564 5928 868 4525 227951 6863 219 67728 6992 2095 1981 402 12964 25768 16026 142229 57745 6081 3838 595 6575 123368 2621 2869 187 3355 21
leaf_count=95278 5273 43814 618 122564 5928 868 4525 227951 6863 219 67728 6992 2095 1981 402 12964 25768 16026 142229 57745 6081 3838 595 6575 123368 2621 2869 187 3355 21
internal_value=0 -0.18659 7.58158 -0.483044 1.18901 12.2719 5.21316 -0.750766 2.44253 11.3947 -0.0996413 0.831944 6.11978 9.73943 16.9462 -0.191852 1.31602 2.15918 -0.932895 0.675796 -0.565932 5.66316 12.4267 2.36871 -0.075463 0.239608 1.62084 7.79318 12.1102 1.1511
internal_weight=0 973385 23956 800805 172580 8038 15918 471539 38261 6768 329266 134319 10645 2599 1270 258896 32760 31398 237507 101559 234032 8363 4169 22601 136332 70370 8797 2282 3574 2642
internal_count=997341 973385 23956 800805 172580 8038 15918 471539 38261 6768 329266 134319 10645 2599 1270 258896 32760 31398 237507 101559 234032 8363 4169 22601 136332 70370 8797 2282 3574 2642
is_linear=0
shrinkage=0.05


Tree=12
num_leaves=31
num_cat=0
split_feature=14 14 14 14 14 16 15 16 17 17 14 14 14 14 16 19 15 14 15 14 20 15 14 16 15 15 15 16 15 17
split_gain=5.09331e+08 1.43413e+08 9.60682e+07 3.17619e+07 2.63657e+07 1.20241e+07 9.53534e+06 7.61932e+06 5.15596e+06 3.45462e+06 3.09464e+06 2.93634e+06 2.7826e+06 2.23912e+06 1.87899e+06 1.66375e+06 1.30886e+06 1.22398e+06 1.16444e+06 1.33613e+06 1.05255e+06 1.03256e+06 1.00286e+06 971104 908180 907854 785527 775537 713276 709262
threshold=207.76500000000001 60.665000000000006 353.04500000000007 100.58500000000002 33.935000000000009 455.95811246339719 -43.995000000000012 90.124056231698574 45.040000000000013 471.3300000000001 20.740000000000002 288.39000000000004 75.675000000000011 711.46500000000015 128.08311246339716 -81.314999999999984 10.505000000000001 649.93000000000018 -17.359999999999989 144.41000000000003 -53.374999999999993 -7.0300000000000002 142.67500000000004 207.10905623169856 9.5400000000000045 -9.8049999999999979 -5.2099999999999964 241.51311246339716 38.615000000000016 403.38000000000005
decision_type=2 2 2 2 2 2 2 2 2 2 2 2 2 2 2 2 2 2 2 2 2 2 2 2 2 2 2 2 2 2
left_child=1 4 6 12 10 9 -2 18 24 15 -1 23 -3 -7 -9 -4 21 20 22 -20 -11 -10 -5 -8 26 -14 -6 -19 -13 -17
right_child=2 3 5 7 8 13 11 14 16 17 -12 28 25 -15 -16 29 -18 27 19 -21 -22 -23 -24 -25 -26 -27 -28 -29 -30 -31
leaf_value=-0.98073304809368 3.2137468655240982 0.39641283349640144 6.9862818029706153 0.8150018522213659 -0.76846844045442564 14.370425663937182 4.883793860335377 2.5345995169136373 -0.48200980709564489 9.3029396675562985 -0.67917775829316795 7.1394206915152099 0.29576621861451247 18.634428269115848 3.6278131621689518 8.8713698233039384 0.92749190631042533 12.249887779558909 1.748943447924721 3.2062068135397777 11.630053190563038 0.0059889703444684821 1.7422122255999246 5.9650338447733802 0.37505826606092613 0.89823772787026535 -0.3547779089025126 15.43296356201172 10.362298180075253 10.782136711134157
leaf_weight=133159 5273 65599 618 6317 12134 1315 4525 10882 11595 623 235619 2095 6888 402 6153 854 3675 614 24683 1680 2208 166420 5417 3838 4085 67819 211260 278 187 1126
leaf_count=133159 5273 65599 618 6317 12134 1315 4525 10882 11595 623 235619 2095 6888 402 6153 854 3675 614 24683 1680 2208 166420 5417 3838 4085 67819 211260 278 187 1126
internal_value=0 -0.177261 7.2025 1.0336 -0.481456 11.6583 4.9525 2.05044 -0.205115 10.6504 -0.788064 5.81379 0.634036 15.3688 2.92947 9.2511 -0.00651487 11.6268 1.65739 1.84181 11.1179 -0.0257968 1.24305 5.38 -0.363738 0.84269 -0.377248 13.2419 7.40352 9.958
internal_weight=0 973385 23956 195438 777947 8038 15918 55132 409169 6321 368778 10645 140306 1717 17035 2598 181690 3723 38097 26363 2831 178015 11734 8363 227479 74707 223394 892 2282 1980
internal_count=997341 973385 23956 195438 777947 8038 15918 55132 409169 6321 368778 10645 140306 1717 17035 2598 181690 3723 38097 26363 2831 178015 11734 8363 227479 74707 223394 892 2282 1980
is_linear=0
shrinkage=0.05


Tree=13
num_leaves=31
num_cat=0
split_feature=14 14 14 14 17 16 15 16 14 16 17 14 14 16 15 18 14 19 15 15 14 20 15 14 16 16 14 16 16 13
split_gain=4.59824e+08 1.34402e+08 7.97498e+07 2.9262e+07 2.53811e+07 1.08518e+07 8.4373e+06 5.46766e+06 5.24389e+06 4.17702e+06 3.11779e+06 2.96169e+06 2.2582e+06 2.04172e+06 1.52562e+06 1.34461e+06 1.24422e+06 1.23976e+06 1.1859e+06 1.12258e+06 1.10464e+06 949925 900594 846597 841533 764121 726184 699922 690435 688274
threshold=219.82500000000002 67.865000000000009 353.04500000000007 39.225000000000001 118.11000000000001 455.95811246339719 -43.995000000000012 124.95811246339713 27.335000000000004 15.190000000000003 471.3300000000001 89.910000000000011 314.85500000000008 583.44311246339726 -29.244999999999987 47.295000000000009 15.535000000000002 -10.41 -0.85999999999999754 -5.549999999999998 649.93000000000018 -53.374999999999993 4.2500000000000009 147.27500000000003 241.51311246339716 29.28405623169856 403.38000000000005 241.51311246339716 160.12500000000003 54.410000000000004
decision_type=2 2 2 2 2 2 2 2 2 2 2 2 2 2 2 2 2 2 2 2 2 2 2 2 2 2 2 2 2 2
left_child=1 3 6 8 11 10 -2 18 16 15 14 19 24 -7 -4 -5 -1 -13 23 -3 21 -12 -10 -6 -8 -11 -16 -22 -9 -17
right_child=2 4 5 9 7 13 12 28 22 25 20 17 -14 -15 26 29 -18 -19 -20 -21 27 -23 -24 -25 -26 -27 -28 -29 -30 -31
leaf_value=-1.0372842771469875 3.1342264785615561 0.073011762920724532 6.8830442148096429 -0.26561673837772853 1.2681203752508259 13.501395282542285 5.2035784922625954 3.142665366504132 -0.52826533911083029 0.19859109707263981 8.8377927366841487 0.57958962329027086 7.7713790291578455 17.305521638931769 8.4584154695704381 -0.077407202088290203 -0.77504757826663218 1.349027587033901 2.2315066623316868 0.70818835012127368 11.63739344568905 11.048549954096478 -0.06582735986570426 2.1151808159096199 6.5660056649976797 0.77928954617574597 10.450640982611073 14.66131591796875 4.1609146634185059 0.34230808748968916
leaf_weight=59957 4767 7619 748 151104 7575 1221 7037 5578 216330 74682 623 6464 1166 496 828 100519 184185 27538 18257 79954 614 2208 11067 4831 1351 6130 1022 278 2373 10819
leaf_count=59957 4767 7619 748 151104 7575 1221 7037 5578 216330 74682 623 6464 1166 496 828 100519 184185 27538 18257 79954 614 2208 11067 4831 1351 6130 1022 278 2373 10819
internal_value=0 -0.162582 7.08951 -0.422878 1.1614 11.0754 4.85235 2.27816 -0.678529 -0.0716816 10.1179 0.806702 5.70962 14.6003 8.78855 -0.168469 -0.839448 1.20275 1.97518 0.652927 11.0455 10.562 -0.505759 1.59797 5.42302 0.24264 9.55899 12.5798 3.44656 -0.0366224
internal_weight=0 974982 22359 814793 160189 8038 14321 38614 471539 343254 6321 121575 9554 1717 2598 262442 244142 34002 30663 87573 3723 2831 227397 12406 8388 80812 1850 892 7951 111338
internal_count=997341 974982 22359 814793 160189 8038 14321 38614 471539 343254 6321 121575 9554 1717 2598 262442 244142 34002 30663 87573 3723 2831 227397 12406 8388 80812 1850 892 7951 111338
is_linear=0
shrinkage=0.05


Tree=14
num_leaves=31
num_cat=0
split_feature=14 14 14 14 14 16 15 14 16 14 16 17 14 15 14 14 15 20 15 13 15 17 15 14 20 16 8 14 14 14
split_gain=4.14991e+08 1.21298e+08 7.19742e+07 2.64374e+07 2.29092e+07 9.85653e+06 7.61466e+06 5.93762e+06 4.95456e+06 3.37276e+06 2.96723e+06 2.65753e+06 2.03802e+06 1.40276e+06 1.37431e+06 1.13717e+06 1.11821e+06 1.07898e+06 1.01346e+06 920711 873533 805962 789283 777466 1.09744e+06 759484 742022 663748 656035 649204
threshold=219.82500000000002 67.865000000000009 353.04500000000007 40.705000000000005 118.11000000000001 531.54811246339716 -43.995000000000012 27.335000000000004 124.95811246339713 471.3300000000001 16.009056231698562 89.910000000000011 314.85500000000008 -26.034999999999993 758.24000000000012 15.360000000000001 -6.8549999999999978 -9.8049999999999979 -5.549999999999998 54.410000000000004 7.9799999999999995 160.38000000000002 -8.8499999999999961 649.93000000000018 -53.374999999999993 241.51311246339716 17.800962418049149 32.715000000000011 403.38000000000005 139.81000000000003
decision_type=2 2 2 2 2 2 2 2 2 2 2 2 2 2 2 2 2 2 2 2 2 2 2 2 2 2 2 2 2 2
left_child=1 3 6 7 11 9 -2 15 17 13 19 18 25 -4 -7 -1 -13 21 -3 22 27 -6 -5 24 -11 -8 -12 -9 -15 -19
right_child=2 4 5 10 8 14 12 20 -10 23 26 16 -14 28 -16 -17 -18 29 -20 -21 -22 -23 -24 -25 -26 -27 -28 -29 -30 -31
leaf_value=-1.0271863088966844 2.9775150743003085 0.070925239769745296 6.5053430874283258 -0.51733004997042198 1.1521343685442937 13.873615363792139 4.943399561591594 -0.57012075411591612 3.2742420667382954 8.3971859284426973 0.23947850943781779 0.57860194021155298 7.3828099406194942 8.0354951747949581 18.484934997558593 -0.74678354602488228 1.2887847594826387 1.8753872568694856 0.67316500524281953 0.32431296946438748 0.10241907780110011 2.0635293656779874 -0.117977852791869 11.950835387909894 10.728220686468635 6.2377055537338881 9.6394946501368572 -0.40820997295178058 9.9294693934695619 2.4664609884948607
leaf_weight=44137 4767 7654 740 13195 6972 1080 7037 104541 7964 623 76054 6984 1166 828 190 200005 26858 12721 79998 11099 6786 3720 198508 892 2664 1351 21 160447 1021 7318
leaf_count=44137 4767 7654 740 13195 6972 1080 7037 104541 7964 623 76054 6984 1166 828 190 200005 26858 12721 79998 11099 6786 3720 198508 892 2664 1351 21 160447 1021 7318
internal_value=0 -0.154453 6.73503 -0.401734 1.10333 10.5216 4.60973 -0.61851 2.16285 9.76314 -0.0275379 0.76588 5.42414 8.34505 14.5635 -0.797476 1.14222 1.87483 0.620576 -0.119596 -0.457741 1.46923 -0.142869 10.6417 10.2864 5.15186 0.242073 -0.472086 9.08133 2.09124
internal_weight=0 974982 22359 814793 160189 8038 14321 515916 38695 6768 298877 121494 9554 2589 1270 244142 33842 30731 87652 222802 271774 10692 211703 4179 3287 8388 76075 264988 1849 20039
internal_count=997341 974982 22359 814793 160189 8038 14321 515916 38695 6768 298877 121494 9554 2589 1270 244142 33842 30731 87652 222802 271774 10692 211703 4179 3287 8388 76075 264988 1849 20039
is_linear=0
shrinkage=0.05


Tree=15
num_leaves=31
num_cat=0
split_feature=14 14 14 14 17 16 15 16 14 14 17 16 14 16 19 17 19 13 16 14 15 15 14 16 7 14 16 15 16 15
split_gain=3.74529e+08 1.09471e+08 6.49567e+07 2.38911e+07 2.06917e+07 8.92385e+06 6.87223e+06 4.59132e+06 4.33765e+06 3.43086e+06 2.52392e+06 2.2772e+06 1.83932e+06 1.69688e+06 1.25127e+06 1.01704e+06 1.05766e+06 979438 937073 917406 975180 886677 813558 746193 742636 693008 690074 665497 657933 655292
threshold=219.82500000000002 67.865000000000009 353.04500000000007 39.225000000000001 116.03000000000002 455.95811246339719 -43.995000000000012 128.08311246339716 25.255000000000006 51.115000000000009 471.3300000000001 48.374056231698567 314.85500000000008 583.44311246339726 -81.314999999999984 147.27500000000003 -30.724999999999998 69.340000000000018 23.384056231698562 619.0350000000002 -53.374999999999993 10.505000000000001 13.365000000000002 39.563112463397133 67.585959552050454 31.850000000000005 226.23811246339716 -5.0299999999999985 241.51311246339716 -8.1549999999999994
decision_type=2 2 2 2 2 2 2 2 2 2 2 2 2 2 2 2 2 2 2 2 2 2 2 2 2 2 2 2 2 2
left_child=1 3 6 8 11 10 -2 15 22 24 14 17 26 -7 -4 16 -6 23 29 20 -12 25 -1 -3 27 -10 -8 -5 -21 -11
right_child=2 4 5 9 7 13 12 -9 21 18 19 -13 -14 -15 -16 -17 -18 -19 -20 28 -22 -23 -24 -25 -26 -27 -28 -29 -30 -31
leaf_value=-1.0865519376574446 2.8286393582670852 0.39069270727328148 5.9670893536416463 -0.57649196246623446 0.86880233033726439 12.19022004161088 4.6075771028800983 3.1753927414923644 -0.57144597236192018 -0.33307169976567857 7.650539550112005 1.160560527943276 7.013669455317241 15.658243505416378 8.5442323652903251 2.2004990227011043 1.7574849258370353 0.9962611438786857 0.35451515827364283 10.46019032903984 9.9747900983513809 0.33940212164874617 -0.75832195064973495 0.69184776404854942 9.1960202217102047 -0.41240122597850121 5.6116660773928331 -0.1834306477959233 13.330708312988282 0.084166695591112034
leaf_weight=21198 4767 39558 618 11459 4090 1221 5993 7232 143754 10281 570 23680 1166 496 1980 10077 18456 14247 31596 708 2167 3216 172548 42849 21 130823 2395 178775 278 111122
leaf_count=21198 4767 39558 618 11459 4090 1221 5993 7232 143754 10281 570 23680 1166 496 1980 10077 18456 14247 31596 708 2167 3216 172548 42849 21 130823 2395 178775 278 111122
internal_value=0 -0.14673 6.39828 -0.381647 1.04816 9.99551 4.37925 2.03559 -0.612648 -0.0643139 9.12722 0.721125 5.15293 13.192 7.93119 1.78291 1.59627 0.613464 0.11196 9.96184 9.49075 -0.486001 -0.794234 0.547284 -0.206069 -0.495669 4.89427 -0.207107 11.2695 0.0488329
internal_weight=0 974982 22359 814793 160189 8038 14321 39855 471539 343254 6321 120334 9554 1717 2598 32623 22546 96654 152999 3723 2737 277793 193746 82407 190255 274577 8388 190234 986 121403
internal_count=997341 974982 22359 814793 160189 8038 14321 39855 471539 343254 6321 120334 9554 1717 2598 32623 22546 96654 152999 3723 2737 277793 193746 82407 190255 274577 8388 190234 986 121403
is_linear=0
shrinkage=0.05


Tree=16
num_leaves=31
num_cat=0
split_feature=14 14 14 14 14 16 15 16 16 14 17 14 16 16 14 15 15 13 15 14 14 14 15 13 14 20 15 14 16 9
split_gain=3.38085e+08 9.56023e+07 6.36772e+07 2.3045e+07 1.62382e+07 8.0923e+06 6.36255e+06 5.1472e+06 3.03053e+06 2.73657e+06 2.29892e+06 2.14834e+06 2.10706e+06 1.19365e+06 1.17094e+06 1.15712e+06 1.04381e+06 952649 873874 1.01803e+06 866674 700622 665983 662251 637736 889028 600954 591841 570137 551534
threshold=207.76500000000001 60.140000000000008 353.04500000000007 100.58500000000002 32.890000000000008 531.54811246339716 -36.709999999999987 90.124056231698574 7.76405623169856 471.3300000000001 72.990000000000023 20.045000000000005 281.17311246339716 134.24811246339715 758.24000000000012 -26.034999999999993 19.095000000000006 43.305000000000007 -17.359999999999989 147.27500000000003 308.78000000000003 142.67500000000004 -5.1999999999999984 218.52500000000003 649.93000000000018 -53.374999999999993 -5.2099999999999964 403.38000000000005 241.51311246339716 17.005472259381062
decision_type=2 2 2 2 2 2 2 2 2 2 2 2 2 2 2 2 2 2 2 2 2 2 2 2 2 2 2 2 2 2
left_child=1 4 6 10 11 9 23 18 17 15 -3 -1 20 -9 -7 -4 -10 26 21 -20 -8 -5 -12 -2 25 -11 -6 -17 -26 -18
right_child=2 3 5 7 8 14 12 13 16 24 22 -13 -14 -15 -16 27 29 -19 19 -21 -22 -23 -24 -25 28 -27 -28 -29 -30 -31
leaf_value=-0.82985516649768043 2.5449438513878024 0.29209288076781842 5.860257149387051 0.63763326424689581 -0.56493294686280171 12.521292976096824 4.3915627897110312 2.0926990577946532 -0.013262698948795615 7.5776986518602705 0.25947568701379037 -0.56565128009357368 7.2297866055477815 2.9701377569309901 16.777775573730469 7.2065088161523789 0.99709677007534647 -0.0038107128830631026 1.4397312973556708 2.8119904197121599 5.9280384353444546 1.4126301823500582 0.72756969191835053 5.4484996326121635 9.9349725841310992 9.6757511998082073 -0.29150365528891781 9.0054336547851559 12.664172363281251 9.1382435526166645
leaf_weight=110202 5259 76458 740 6317 22230 1080 8631 11071 137163 623 8520 254938 797 5964 190 828 2226 26979 24934 1429 1027 5417 70268 204 614 2664 209248 1021 278 21
leaf_count=110202 5259 76458 740 6317 22230 1080 8631 11071 137163 623 8520 254938 797 5964 190 828 2226 26979 24934 1429 1027 5417 70268 204 614 2664 209248 1021 278 21
internal_value=0 -0.14442 5.86809 0.799263 -0.404614 9.49574 4.03626 1.67741 -0.183643 8.8085 0.48741 -0.64539 4.75885 2.39989 13.1581 7.53114 0.00424854 -0.284991 1.35435 1.51411 4.55495 0.995411 0.676951 2.65337 9.59986 9.2781 -0.317762 8.19986 10.7856 1.07318
internal_weight=0 973385 23956 210378 763007 8038 15918 55132 397867 6768 155246 365140 10455 17035 1270 2589 139410 258457 38097 26363 9658 11734 78788 5463 4179 3287 231478 1849 892 2247
internal_count=997341 973385 23956 210378 763007 8038 15918 55132 397867 6768 155246 365140 10455 17035 1270 2589 139410 258457 38097 26363 9658 11734 78788 5463 4179 3287 231478 1849 892 2247
is_linear=0
shrinkage=0.05


Tree=17
num_leaves=31
num_cat=0
split_feature=14 14 14 14 14 16 15 17 16 16 16 16 16 14 13 16 14 15 15 18 13 13 16 14 15 12 16 15 14 15
split_gain=3.05364e+08 8.92043e+07 5.28129e+07 1.97046e+07 1.69311e+07 7.33948e+06 5.61882e+06 4.42508e+06 4.11704e+06 2.21992e+06 2.09122e+06 1.66321e+06 1.55233e+06 1.42515e+06 1.34481e+06 1.48219e+06 1.10176e+06 854518 736914 738353 731855 730920 683042 673682 647210 636199 620090 617173 603736 573973
threshold=219.82500000000002 67.865000000000009 353.04500000000007 40.705000000000005 110.04500000000002 455.95811246339719 -43.995000000000012 28.900000000000002 118.62811246339713 17.049056231698561 74.589056231698564 48.374056231698567 281.17311246339716 711.46500000000015 302.7050000000001 369.86811246339715 18.395000000000003 -0.25999999999999795 -4.2499999999999991 93.810000000000016 54.410000000000004 302.7050000000001 241.51311246339716 308.78000000000003 5.8150000000000022 103.50000000000001 5.1999999999999984 64.915000000000006 130.78500000000003 -2.2600000000000002
decision_type=2 2 2 2 2 2 2 2 2 2 2 2 2 2 2 2 2 2 2 2 2 2 2 2 2 2 2 2 2 2
left_child=1 3 6 7 11 10 -2 16 17 20 21 18 23 -7 15 -12 -1 -6 -3 -20 26 -4 -16 -8 29 -10 -5 -11 -19 -9
right_child=2 4 5 9 8 13 12 24 25 27 14 -13 -14 -15 22 -17 -18 28 19 -21 -22 -23 -24 -25 -26 -27 -28 -29 -30 -31
leaf_value=-0.8037662907189026 2.5547220027059763 0.20035111600996347 1.5728829009623468 -0.21818780192793255 1.2453140631152906 11.123409404682116 4.3083299600630021 -0.63572042971229215 4.0998735662133763 0.21684580854342062 6.5729040005028878 1.0241415295648941 6.8368643182389279 14.525210730709247 9.3344681981219733 8.7798971022198327 -0.59464891000580067 1.4874461741530922 0.56397707644416128 1.2973394018670499 0.29773424491440675 6.5737202592400834 12.030963897705078 5.6529066076810004 0.071264717565598351 2.6242850665422188 -0.046473175110847566 6.0742205842336023 2.0231485248668615 -0.36157589919390087
leaf_weight=95267 4767 13728 79 90642 14343 1315 7743 21046 806 71903 1124 21733 752 402 1513 2354 185886 10911 77127 3592 11099 973 278 1059 7975 7795 125188 45 10154 205742
leaf_count=95267 4767 13728 79 90642 14343 1315 7743 21046 806 71903 1124 21733 752 402 1513 2354 185886 10911 77127 3592 11099 973 278 1059 7975 7795 125188 45 10154 205742
internal_value=0 -0.132491 5.77736 -0.34455 0.946138 9.02095 3.95681 -0.531698 1.78134 -0.0214975 8.2335 0.629764 4.65639 11.9199 8.63987 8.06665 -0.665507 1.54299 0.539015 0.596612 -0.0982259 6.19818 9.75302 4.4701 -0.371449 2.76256 -0.118588 0.220509 1.74567 -0.387017
internal_weight=0 974982 22359 814793 160189 8038 14321 515916 44009 298877 6321 116180 9554 1717 5269 3478 281153 35408 94447 80719 226929 1052 1791 8802 234763 8601 215830 71948 21065 226788
internal_count=997341 974982 22359 814793 160189 8038 14321 515916 44009 298877 6321 116180 9554 1717 5269 3478 281153 35408 94447 80719 226929 1052 1791 8802 234763 8601 215830 71948 21065 226788
is_linear=0
shrinkage=0.05


Tree=18
num_leaves=31
num_cat=0
split_feature=14 14 14 14 16 16 15 14 17 17 14 16 16 15 14 15 13 14 15 14 16 15 14 15 15 15 13 15 15 14
split_gain=2.75591e+08 8.06578e+07 4.76636e+07 1.99048e+07 1.3638e+07 6.65119e+06 5.07099e+06 4.01121e+06 3.1656e+06 2.57744e+06 2.24517e+06 1.78162e+06 1.40098e+06 1.05919e+06 986531 971623 837710 837593 771348 705589 660346 650039 607998 587417 570733 556430 552516 544351 534726 529535
threshold=219.82500000000002 69.425000000000011 353.04500000000007 40.705000000000005 83.094056231698559 531.54811246339716 -43.995000000000012 27.335000000000004 100.58500000000002 57.015000000000008 471.3300000000001 134.24811246339715 281.17311246339716 16.750000000000004 758.24000000000012 -79.234999999999971 69.340000000000018 14.665000000000001 -5.9099999999999975 151.35000000000005 57.054056231698574 11.715000000000005 308.78000000000003 6.9499999999999984 -5.2099999999999964 -1.909999999999999 181.64500000000001 -3.8199999999999963 2.6100000000000008 619.0350000000002
decision_type=2 2 2 2 2 2 2 2 2 2 2 2 2 2 2 2 2 2 2 2 2 2 2 2 2 2 2 2 2 2
left_child=1 3 6 7 8 10 26 17 24 13 15 -6 22 18 -7 -4 20 -1 -5 27 -10 25 -8 -11 -3 -9 -2 -18 -19 -12
right_child=2 4 5 9 11 14 12 21 16 23 29 -13 -14 -15 -16 -17 19 28 -20 -21 -22 -23 -24 -25 -26 -27 -28 -29 -30 -31
leaf_value=-0.86901189245968846 2.2768651776445306 0.22102186366711019 5.0800149715951219 -0.4599311409039144 1.7892223492915098 11.305669955500852 4.0929134427523506 -0.61351627593092728 0.33851428892740976 0.19109507402544529 8.3508873154890804 2.7385015159709272 6.4950210622016415 1.0364740236341636 15.21262664794922 7.3385745422207584 0.83092280383389194 -0.633999968668986 -0.078662037199362225 2.1904024083722233 1.0981014913972806 0.34261243856688067 5.3702612533785477 0.73598151485231234 0.64005060165309668 -0.35902709838154578 4.357172141657319 1.564063676617153 -0.30940267208240302 9.6764965219865218
leaf_weight=37675 4423 9100 629 14161 16772 1080 7743 23542 3490 86019 3193 7008 752 2059 190 1960 4023 192886 209800 2739 15882 3137 1059 5248 75934 245095 344 6831 13581 986
leaf_count=37675 4423 9100 629 14161 16772 1080 7743 23542 3490 86019 3193 7008 752 2059 190 1960 4023 192886 209800 2739 15882 3137 1059 5248 75934 245095 344 6831 13581 986
internal_value=0 -0.125866 5.48849 -0.313463 0.976598 8.5699 3.75897 -0.505113 0.756454 -0.00183443 7.94686 2.06898 4.42357 -0.0923913 11.8902 6.78986 1.17239 -0.65221 -0.10277 1.47329 0.961257 -0.372973 4.2466 0.222427 0.595208 -0.381329 2.42699 1.29233 -0.612649 8.66365
internal_weight=0 974982 22359 833203 141779 8038 14321 515916 117999 317287 6768 23780 9554 226020 1270 2589 32965 244142 223961 13593 19372 271774 8802 91267 85034 268637 4767 10854 206467 4179
internal_count=997341 974982 22359 833203 141779 8038 14321 515916 117999 317287 6768 23780 9554 226020 1270 2589 32965 244142 223961 13593 19372 271774 8802 91267 85034 268637 4767 10854 206467 4179
is_linear=0
shrinkage=0.05


Tree=19
num_leaves=31
num_cat=0
split_feature=14 14 14 14 14 16 19 16 14 18 16 16 14 16 13 16 16 15 14 13 13 15 14 15 16 16 15 13 15 15
split_gain=2.48763e+08 6.91387e+07 4.87292e+07 1.62074e+07 1.21172e+07 6.05947e+06 4.62014e+06 3.52599e+06 2.46088e+06 1.80139e+06 1.78378e+06 1.63133e+06 1.47183e+06 1.18183e+06 1.1238e+06 1.27407e+06 918051 784608 683344 653183 634070 608733 608045 715715 595403 587865 570636 544049 530351 525712
threshold=201.60500000000002 60.140000000000008 353.04500000000007 100.58500000000002 32.715000000000011 455.95811246339719 -18.314999999999998 88.508112463397126 44.435000000000009 78.020000000000024 74.589056231698564 281.17311246339716 20.045000000000005 583.44311246339726 302.7050000000001 369.86811246339715 135.25405623169863 11.285000000000002 263.56500000000005 218.52500000000003 302.7050000000001 -5.2099999999999964 147.27500000000003 -17.359999999999989 241.51311246339716 135.25405623169863 5.294999999999999 72.815000000000012 -1.7399999999999964 -5.2950000000000008
decision_type=2 2 2 2 2 2 2 2 2 2 2 2 2 2 2 2 2 2 2 2 2 2 2 2 2 2 2 2 2 2
left_child=1 4 6 9 12 10 19 22 26 28 20 18 -1 -7 15 -12 -9 21 -8 25 -4 -10 23 -5 -16 -2 29 -24 -3 -6
right_child=2 3 5 7 8 13 11 16 17 -11 14 -13 -14 -15 24 -17 -18 -19 -20 -21 -22 -23 27 -25 -26 -27 -28 -29 -30 -31
leaf_value=-0.71463797212553537 1.9199318896440527 -0.056475479849174073 1.2381677929359147 0.69032398922605198 -0.65437792329956523 9.9393633149668013 3.620652723818603 1.8942000858739616 -0.35153937389197421 0.63552140611849106 5.8923118380889354 6.2200346048084683 -0.49394487031786316 12.833601339401739 8.4280223934680372 7.9384953514235255 3.2310956556507779 0.76404825902736939 4.5743021989480042 4.8649889357754441 5.8959206828110515 -0.0097260174119268225 0.85364720186555254 1.2145526938338038 10.945590972900391 3.0275776124936939 0.14045942812586754 2.1125790218969001 0.32523178912074874 -0.26906811866626296
leaf_weight=110202 4337 10178 79 9025 9229 1221 7253 16432 14173 59148 1124 797 240242 496 1513 2354 1393 3108 2535 244 973 160854 1245 23372 278 1655 8174 2762 85920 217025
leaf_count=110202 4337 10178 79 9025 9229 1221 7253 16432 14173 59148 1124 797 240242 496 1513 2354 1393 3108 2535 244 973 160854 1245 23372 278 1655 8174 2762 85920 217025
internal_value=0 -0.126253 4.93901 0.678361 -0.347151 8.14141 3.40873 1.4225 -0.163509 0.418426 7.42591 4.04476 -0.563345 10.7754 7.80122 7.27722 1.99868 -0.0234214 3.86764 2.32913 5.54615 -0.0374047 1.14038 1.06852 8.8188 2.22587 -0.269958 1.72142 0.284804 -0.284785
internal_weight=0 972482 24859 209475 763007 8038 16821 54229 412563 155246 6321 10585 350444 1717 5269 3478 17825 178135 9788 6236 1052 175027 36404 32397 1791 5992 234428 4007 96098 226254
internal_count=997341 972482 24859 209475 763007 8038 16821 54229 412563 155246 6321 10585 350444 1717 5269 3478 17825 178135 9788 6236 1052 175027 36404 32397 1791 5992 234428 4007 96098 226254
is_linear=0
shrinkage=0.05


Tree=20
num_leaves=31
num_cat=0
split_feature=14 14 14 14 16 16 15 14 18 16 16 16 14 14 13 16 14 13 13 15 13 15 16 18 16 15 15 16 15 13
split_gain=2.24736e+08 6.58014e+07 3.87407e+07 1.62742e+07 1.10846e+07 5.46867e+06 4.1521e+06 3.33019e+06 2.54839e+06 2.12987e+06 1.60986e+06 1.46473e+06 1.20317e+06 1.09136e+06 1.01423e+06 1.14985e+06 835559 748518 716016 648990 603036 565100 556370 550197 537351 515942 501664 492594 471488 468810
threshold=219.82500000000002 69.425000000000011 353.04500000000007 40.705000000000005 83.094056231698559 455.95811246339719 -43.995000000000012 28.900000000000002 100.58500000000002 17.049056231698561 74.589056231698564 134.24811246339715 328.39500000000004 758.24000000000012 302.7050000000001 369.86811246339715 17.095000000000002 52.855000000000011 69.340000000000018 17.359999999999996 425.24500000000006 -11.194999999999999 57.054056231698574 151.35000000000005 241.51311246339716 14.320000000000002 -5.2099999999999964 241.51311246339716 -2.2600000000000002 181.64500000000001
decision_type=2 2 2 2 2 2 2 2 2 2 2 2 2 2 2 2 2 2 2 2 2 2 2 2 2 2 2 2 2 2
left_child=1 3 6 7 8 10 29 16 26 17 20 -6 27 -7 15 -12 -1 21 22 -11 -4 -5 -10 -20 -16 28 -3 -8 -9 -2
right_child=2 4 5 9 11 13 12 25 18 19 14 -13 -14 -15 24 -17 -18 -19 23 -21 -22 -23 -24 -25 -26 -27 -28 -29 -30 -31
leaf_value=-0.72984438472875179 2.0534788407656559 0.19288750036427751 4.5391151569909969 -0.4509887330692548 1.6132740230796845 9.7920088487586412 3.6507741175171788 -0.54908840812511783 0.28482531461431893 0.18779639840713405 5.5976963080545339 2.4739996652624927 5.8308619824084609 13.810314941406251 8.0066211813897077 7.5415707266523162 -0.52533109772480102 0.26772690235822272 1.1792297828553617 1.0325381325614418 7.2326929621110878 -0.084956654307896576 0.98912217772899946 1.977502080829078 10.398311614990234 0.51115269509598549 0.58249923069939058 4.628416913455645 -0.3017754637597046 3.9697328938994296
leaf_weight=64990 4423 9267 767 11115 16772 1527 7164 21197 3417 83922 1124 7008 819 190 1513 2354 215709 14467 10795 2337 285 205446 15633 2698 278 1863 76189 1571 212157 344
leaf_count=64990 4423 9267 767 11115 16772 1527 7164 21197 3417 83922 1124 7008 819 190 1513 2354 215709 14467 10795 2337 285 205446 15633 2698 278 1863 76189 1571 212157 344
internal_value=0 -0.113661 4.95629 -0.283103 0.882108 7.73434 3.39704 -0.456396 0.68364 -0.00132451 7.05462 1.86693 3.99842 10.2367 7.41116 6.91336 -0.572682 -0.0804818 1.06018 0.210683 5.26884 -0.103743 0.862792 1.33885 8.37786 -0.317624 0.540249 3.8266 -0.32424 2.19176
internal_weight=0 974982 22359 833203 141779 8038 14321 515916 117999 317287 6321 23780 9554 1717 5269 3478 280699 231028 32543 86259 1052 216561 19050 13493 1791 235217 85456 8735 233354 4767
internal_count=997341 974982 22359 833203 141779 8038 14321 515916 117999 317287 6321 23780 9554 1717 5269 3478 280699 231028 32543 86259 1052 216561 19050 13493 1791 235217 85456 8735 233354 4767
is_linear=0
shrinkage=0.05


Tree=21
num_leaves=31
num_cat=0
split_feature=14 14 14 14 16 16 15 18 14 17 16 17 14 13 14 16 15 15 15 15 15 15 14 14 15 15 12 16 15 13
split_gain=2.02824e+08 5.93915e+07 3.49635e+07 1.32757e+07 1.13229e+07 4.98652e+06 3.74727e+06 2.30861e+06 2.28822e+06 2.20707e+06 1.70021e+06 1.66675e+06 1.08587e+06 793181 750194 745720 743001 654988 612924 607872 534208 491167 481943 478105 479359 467199 461980 456382 426659 423101
threshold=219.82500000000002 67.865000000000009 353.04500000000007 36.365000000000009 74.589056231698564 531.54811246339716 -43.995000000000012 100.58500000000002 51.115000000000009 22.825000000000003 128.08311246339716 471.3300000000001 328.39500000000004 69.340000000000018 758.24000000000012 43.208112463397129 -79.234999999999971 6.8550000000000013 3.6500000000000044 51.285000000000011 5.3850000000000025 -4.7750000000000012 11.370000000000003 164.11000000000004 -1.7299999999999931 -1.909999999999999 103.50000000000001 226.23811246339716 -3.6399999999999983 181.64500000000001
decision_type=2 2 2 2 2 2 2 2 2 2 2 2 2 2 2 2 2 2 2 2 2 2 2 2 2 2 2 2 2 2
left_child=1 3 6 9 7 11 29 15 19 20 -6 16 27 -9 -7 28 -4 21 -11 25 22 -10 -1 24 -15 -5 -12 -8 -3 -2
right_child=2 4 5 8 10 14 12 13 17 18 26 -13 -14 23 -16 -17 -18 -19 -20 -21 -22 -23 -24 -25 -26 -27 -28 -29 -30 -31
leaf_value=-0.89510512597879688 1.9508048356980887 0.08848452284118348 4.329148899309291 -0.39091072444648473 1.4496670735083645 9.7128164828265167 3.3990289713354671 0.72738738054544438 -0.20672895173078898 -0.39320966600500573 3.4648059702984457 7.4276789923599509 5.5393189855256511 0.72082205048890369 13.119799804687501 0.65545563380781291 6.2955814780353343 0.55963601805830154 -0.030610233836691071 5.9235989966043618 -0.063510673057335154 0.09690192716890618 -0.59412929653945645 1.9841887729981953 1.3919582688199394 -0.14115266169919735 2.1950280747083304 4.188168952460499 0.42663577552744292 3.7712461845819343
leaf_weight=14583 4423 11133 636 20711 21320 1080 6120 14756 14825 263407 806 4169 819 4304 190 34975 1963 7046 12194 41 4418 131128 151254 1947 6968 195186 6438 2615 57542 344
leaf_count=14583 4423 11133 636 20711 21320 1080 6120 14756 14825 263407 806 4169 819 4304 190 34975 1963 7046 12194 41 4418 131128 151254 1947 6968 195186 6438 2615 57542 344
internal_value=0 -0.107978 4.70847 -0.28101 0.77214 7.34762 3.22719 0.576313 -0.059141 -0.464602 1.67452 6.80815 3.7985 0.979379 10.2225 0.467527 5.81438 0.0887914 -0.377166 -0.163956 -0.60614 0.066061 -0.620596 1.26067 1.1357 -0.165112 2.33631 3.63527 0.371818 2.08217
internal_weight=0 974982 22359 814793 160189 8038 14321 131625 368937 445856 28564 6768 9554 27975 1270 103650 2599 152999 275601 215938 170255 145953 165837 13219 11272 215897 7244 8735 68675 4767
internal_count=997341 974982 22359 814793 160189 8038 14321 131625 368937 445856 28564 6768 9554 27975 1270 103650 2599 152999 275601 215938 170255 145953 165837 13219 11272 215897 7244 8735 68675 4767
is_linear=0
shrinkage=0.05


Tree=22
num_leaves=31
num_cat=0
split_feature=14 14 14 14 14 16 15 16 14 18 16 14 18 15 14 15 15 20 16 15 18 18 15 14 0 15 15 14 15 14
split_gain=1.83049e+08 5.37177e+07 3.15667e+07 1.34583e+07 8.99323e+06 4.28762e+06 3.60541e+06 2.78783e+06 1.8654e+06 1.83715e+06 1.37023e+06 1.28056e+06 1.12295e+06 787498 677050 653694 636553 602716 579795 561810 529609 506117 486711 480402 475051 460111 443896 436066 408835 397863
threshold=219.82500000000002 60.140000000000008 394.7000000000001 107.09500000000001 32.715000000000011 531.54811246339716 -43.995000000000012 113.67811246339714 81.835000000000022 43.305000000000007 281.17311246339716 471.3300000000001 22.825000000000003 -17.269999999999992 758.24000000000012 17.445000000000004 13.709999999999999 -9.8049999999999979 150.64811246339715 -5.9099999999999975 142.67500000000004 153.52500000000001 38.615000000000016 11.370000000000003 0.33245000000000008 -3.4699999999999993 -5.2950000000000008 308.78000000000003 -172.69999999999996 619.0350000000002
decision_type=2 2 2 2 2 2 2 2 2 2 2 2 2 2 2 2 2 2 2 2 2 2 2 2 2 2 2 2 2 2
left_child=1 4 6 8 12 11 -2 17 19 26 27 13 23 28 -7 25 -10 20 -9 -3 -5 -19 -12 -1 -17 -11 -6 -8 -4 -13
right_child=2 3 5 7 9 14 10 18 16 15 22 29 -14 -15 -16 24 -18 21 -20 -21 -22 -23 -24 -25 -26 -27 -28 -29 -30 -31
leaf_value=-0.85005339416748016 1.9776809454514162 -0.10964153465497806 0.83981785529699082 0.44855345736482344 -0.56427719124974862 9.2271750697383172 3.3305271888662951 1.8392360705904385 0.59850229924143716 -0.27138608235840156 4.5965498369021391 6.7834375750484641 -0.39660972032317748 6.2376047841702666 12.463809204101564 0.90669286111057201 1.7470685281861738 1.2263606123060085 2.698555176998136 0.30136370345335661 1.1225481442671628 2.3801979548521714 7.0321784098008102 -0.55019244642453702 8.3080509901046753 -0.0031698614571729448 -0.21896302045429433 4.3366224384993961 4.6608317915552009 7.9324775777046872
leaf_weight=14596 4769 9067 78 5013 9715 1080 7743 8438 53779 17738 517 3193 178512 1529 190 1490 1234 23754 2558 100179 6963 990 340 157336 22 162199 221399 1251 683 986
leaf_count=14596 4769 9067 78 5013 9715 1080 7743 8438 53779 17738 517 3193 178512 1529 190 1490 1234 23754 2558 100179 6963 990 340 157336 22 162199 221399 1251 683 986
internal_value=0 -0.102579 4.47305 0.60155 -0.298197 7.05525 3.10618 1.34074 0.386822 -0.139989 3.6525 6.53379 -0.484448 5.58347 9.7114 -0.0209108 0.624266 1.1316 2.03914 0.267252 0.840423 1.27253 5.56284 -0.575649 1.01438 -0.0296103 -0.233478 3.47047 4.26919 7.05454
internal_weight=0 974982 22359 211975 763007 7739 14620 47716 164259 412563 9851 6469 350444 2290 1270 181449 55013 36720 10996 109246 11976 24744 857 171932 1512 179937 231114 8994 761 4179
internal_count=997341 974982 22359 211975 763007 7739 14620 47716 164259 412563 9851 6469 350444 2290 1270 181449 55013 36720 10996 109246 11976 24744 857 171932 1512 179937 231114 8994 761 4179
is_linear=0
shrinkage=0.05


Tree=23
num_leaves=31
num_cat=0
split_feature=14 14 14 14 14 16 15 16 16 18 16 16 17 16 13 16 15 15 14 14 13 13 16 16 16 15 7 15 15 15
split_gain=1.65209e+08 4.47578e+07 3.4567e+07 1.03254e+07 7.68767e+06 4.11956e+06 3.51632e+06 2.18854e+06 1.48147e+06 1.37441e+06 1.27671e+06 1.2183e+06 1.12306e+06 852906 823078 938244 661113 557744 592903 557398 492101 490934 490422 488287 465811 446008 418504 416510 400697 400647
threshold=189.80000000000004 58.75500000000001 353.04500000000007 100.58500000000002 32.890000000000008 455.95811246339719 -17.445000000000004 88.508112463397126 7.9340562316985563 78.020000000000024 74.589056231698564 281.17311246339716 22.130000000000003 583.44311246339726 302.7050000000001 369.86811246339715 20.830000000000009 -17.359999999999989 144.41000000000003 233.28000000000003 218.52500000000003 425.24500000000006 135.25405623169863 160.12500000000003 241.51311246339716 -4.6000000000000005 17.447416761395463 5.2049999999999921 -24.734999999999996 5.3850000000000025
decision_type=2 2 2 2 2 2 2 2 2 2 2 2 2 2 2 2 2 2 2 2 2 2 2 2 2 2 2 2 2 2
left_child=1 4 6 9 12 10 20 17 25 27 21 19 29 -7 15 -12 -10 -5 -19 -8 22 -4 -2 -9 -16 -6 -18 -3 -11 -1
right_child=2 3 5 7 8 13 11 23 16 28 14 -13 -14 -15 24 -17 26 18 -20 -21 -22 -23 -24 -25 -26 -27 -28 -29 -30 -31
leaf_value=-0.57545442062966623 1.5600549496586216 0.20071317269950342 3.7921541053048951 0.62173708951289142 -0.4038277581256603 8.0924017147779672 2.4524651677816509 1.5562183327289842 -0.011209483758657893 -0.34713135563823233 4.7214833305399617 5.1528693798199372 -0.38295500717069714 10.551110562970562 6.8835903235799183 6.4774097069908025 0.80995655630788199 0.9833190408061725 1.9823724842852741 3.3251139824081224 4.0562328404260546 6.2225071796618012 2.5405792580295099 3.0207431272733012 9.1103881835937504 -0.1819552503467271 7.9037623291923893 0.66197308198779381 0.54318085043705588 -0.029442960358636628
leaf_weight=140488 5524 101131 767 11170 25100 1221 2384 16100 128386 1292 1124 796 221210 496 1513 2354 2092 23121 1587 7873 247 285 1658 590 278 232088 21 5143 57860 3442
leaf_count=140488 5524 101131 767 11170 25100 1221 2384 16100 128386 1292 1124 796 221210 496 1513 2354 2092 23121 1587 7873 247 285 1658 590 278 232088 21 5143 57860 3442
internal_value=0 -0.106361 3.89357 0.524539 -0.289049 6.63082 2.70311 1.13498 -0.133986 0.330557 6.04087 3.26852 -0.453687 8.80266 6.35838 5.90994 0.00322813 0.914938 1.04749 3.12229 1.86188 4.45057 1.78641 1.60799 7.22924 -0.203609 0.880458 0.223035 0.523735 -0.562397
internal_weight=0 970821 26520 217994 752827 8038 18482 52568 387687 165426 6321 11053 365140 1717 5269 3478 130499 35878 24708 10257 7429 1052 7182 16690 1791 257188 2113 106274 59152 143930
internal_count=997341 970821 26520 217994 752827 8038 18482 52568 387687 165426 6321 11053 365140 1717 5269 3478 130499 35878 24708 10257 7429 1052 7182 16690 1791 257188 2113 106274 59152 143930
is_linear=0
shrinkage=0.05


Tree=24
num_leaves=31
num_cat=0
split_feature=14 14 14 14 14 16 16 13 16 18 16 16 15 14 14 13 16 15 16 8 15 13 16 13 15 15 15 16 14 15
split_gain=1.49303e+08 3.88398e+07 3.52335e+07 6.95077e+06 6.28976e+06 4.29879e+06 3.71791e+06 1.59648e+06 1.41204e+06 1.24389e+06 1.15223e+06 1.04569e+06 1.00247e+06 935806 774801 742828 846765 615726 560822 511335 502116 475985 420394 419762 415206 411988 397497 372913 356673 352004
threshold=164.11000000000004 353.04500000000007 58.75500000000001 32.715000000000011 100.58500000000002 179.80811246339715 455.95811246339719 181.64500000000001 7.9340562316985563 72.990000000000023 74.589056231698564 88.508112463397126 16.750000000000004 20.045000000000005 711.46500000000015 302.7050000000001 369.86811246339715 20.830000000000009 135.25405623169863 22.008070697454926 -17.359999999999989 302.7050000000001 241.51311246339716 40.705000000000005 -89.819999999999965 27.855000000000008 3.2900000000000031 -6.475943768301442 259.66000000000003 -13.879999999999999
decision_type=2 2 2 2 2 2 2 2 2 2 2 2 2 2 2 2 2 2 2 2 2 2 2 2 2 2 2 2 2 2
left_child=2 5 3 13 9 7 10 18 23 -4 21 20 -7 -1 -8 16 -12 -10 24 -19 -6 -3 -17 27 -2 -13 -15 -5 -9 -11
right_child=1 6 4 8 11 12 14 28 17 29 15 25 -14 26 -16 22 -18 19 -20 -21 -22 -23 -24 -25 -26 -27 -28 -29 -30 -31
leaf_value=-0.55803220767257844 0.88012852820942633 0.49552474927298634 0.18486040863667016 -0.54188342831109004 0.53994833728944547 2.9959454699801724 7.7752711167716262 1.0296370962918815 -0.012163170688374355 0.01198028524425517 4.4854091367687614 1.3050533674517724 4.5452609018738253 -0.39676978890432801 10.283542018150216 6.5394107853901451 6.1535389246328869 0.76729617826975904 2.2624230047429448 8.6081349963233578 0.96365012731511068 4.5310899013728054 8.6548683166503917 -0.037256480112927537 1.6805452635966363 2.3916873093291819 -0.10092333915947022 -0.20972871059314904 3.9294817240698614 0.48483839136756646
leaf_weight=110202 1928 79 87640 8777 9841 7735 1315 118 129205 4158 1124 10299 1207 228294 402 1513 2354 2111 3618 21 24156 973 278 35317 10149 953 11948 226952 1046 73628
leaf_count=110202 1928 79 87640 8777 9841 7735 1315 118 129205 4158 1124 10299 1207 228294 402 1513 2354 2111 3618 21 24156 973 278 35317 10149 953 11948 226952 1046 73628
internal_value=0 3.26438 -0.114648 -0.274596 0.456913 2.31889 6.29928 1.84886 -0.132812 0.31403 5.73882 0.979283 3.20507 -0.437394 8.36253 6.04047 5.61444 0.00174353 1.71635 0.844528 0.841003 4.22804 6.86777 -0.198012 1.55276 1.39709 -0.382056 -0.222096 3.63551 0.459562
internal_weight=0 33839 963502 752827 210675 25801 8038 16859 402383 165426 6321 45249 8942 350444 1717 5269 3478 131337 15695 2132 33997 1052 1791 271046 12077 11252 240242 235729 1164 77786
internal_count=997341 33839 963502 752827 210675 25801 8038 16859 402383 165426 6321 45249 8942 350444 1717 5269 3478 131337 15695 2132 33997 1052 1791 271046 12077 11252 240242 235729 1164 77786
is_linear=0
shrinkage=0.05


Tree=25
num_leaves=31
num_cat=0
split_feature=14 14 14 14 14 16 16 13 16 14 16 16 16 14 17 15 14 16 15 17 15 13 15 18 15 15 15 15 9 13
split_gain=1.34746e+08 3.50529e+07 3.18099e+07 6.07938e+06 5.97333e+06 3.87966e+06 3.36148e+06 1.44082e+06 1.39199e+06 1.3649e+06 1.15835e+06 950518 874194 696065 566242 548459 538266 506141 494892 489894 470726 435127 428300 391212 389907 387644 380146 375321 355007 353394
threshold=164.11000000000004 353.04500000000007 57.015000000000008 89.910000000000011 30.985000000000003 179.80811246339715 531.54811246339716 181.64500000000001 83.094056231698559 42.785000000000004 74.589056231698564 281.17311246339716 31.019056231698563 17.270000000000003 449.72000000000008 16.750000000000004 758.24000000000012 135.25405623169863 -9.8049999999999979 121.50000000000001 27.855000000000008 425.24500000000006 -3.4699999999999993 71.075000000000003 -53.374999999999993 -6.8549999999999978 3.2900000000000031 7.3750000000000009 17.005472259381062 357.81000000000006
decision_type=2 2 2 2 2 2 2 2 2 2 2 2 2 2 2 2 2 2 2 2 2 2 2 2 2 2 2 2 2 2
left_child=2 5 4 12 13 7 10 17 18 26 21 -7 22 -1 -12 25 -8 24 -5 -20 -10 -3 -4 -24 -2 -11 -6 -15 -17 -16
right_child=1 6 3 8 9 11 16 -9 20 15 14 -13 -14 27 29 28 -18 -19 19 -21 -22 -23 23 -25 -26 -27 -28 -29 -30 -31
leaf_value=-0.54647335310909784 1.1207438002833456 3.3967748613836251 -0.088095161609119302 0.4468394569620564 -0.24038587716437521 2.8835636741446162 7.9129834055017545 3.4537356720654828 1.1837289184598005 -0.32339441016032067 4.8969653642465616 4.6927896951941062 0.40994545402526361 -0.39033340132645289 5.8933070322487646 0.72789685163917406 10.798886108398438 2.1493018106573389 0.74004691520074528 1.3456904659225684 2.2724249378097392 5.6848273387708161 0.17109112290479145 0.50715223981118829 1.7028822501673404 -0.033299132239488403 0.035571341764673352 0.13860145038667931 7.2649532499767489 7.1043604345414515
leaf_weight=89986 4725 767 14160 13193 216010 8145 1080 1164 13775 12315 1283 797 58112 227450 3714 1887 190 3618 29322 3768 1070 285 78615 9732 7352 177437 13245 3404 21 719
leaf_count=89986 4725 767 14160 13193 216010 8145 1080 1164 13775 12315 1283 797 58112 227450 3714 1887 190 3618 29322 3768 1070 285 78615 9732 7352 177437 13245 3404 21 719
internal_value=0 3.10116 -0.108915 0.416529 -0.265996 2.20295 5.98431 1.75642 0.840903 -0.142118 5.54138 3.04482 0.255021 -0.428514 5.82201 -0.043645 8.34473 1.63054 0.705775 0.809012 1.2622 4.01664 0.167194 0.20811 1.47513 -0.0521265 -0.224443 -0.382534 0.799846 6.08973
internal_weight=0 33839 963502 221747 741755 25801 8038 16859 61128 420915 6768 8942 160619 320840 5716 191660 1270 15695 46283 33090 14845 1052 102507 88347 12077 189752 229255 230854 1908 4433
internal_count=997341 33839 963502 221747 741755 25801 8038 16859 61128 420915 6768 8942 160619 320840 5716 191660 1270 15695 46283 33090 14845 1052 102507 88347 12077 189752 229255 230854 1908 4433
is_linear=0
shrinkage=0.05


Tree=26
num_leaves=31
num_cat=0
split_feature=14 14 14 17 14 16 15 16 14 14 17 16 14 15 16 19 19 15 15 0 15 15 14 15 17 15 15 14 14 16
split_gain=1.21719e+08 3.58317e+07 2.08635e+07 7.65913e+06 7.34842e+06 2.89893e+06 2.36998e+06 1.42971e+06 1.26439e+06 1.22875e+06 1.20456e+06 949769 744678 1.25925e+06 647236 485045 484000 469351 451877 448766 444944 406821 405112 391239 385176 374628 365606 362977 359587 358975
threshold=219.82500000000002 65.435000000000016 394.7000000000001 120.80500000000002 36.190000000000005 455.95811246339719 -43.995000000000012 118.62811246339713 23.520000000000003 84.530000000000015 50.335000000000001 281.17311246339716 619.0350000000002 -53.374999999999993 583.44311246339726 -40.875 13.709999999999999 1.5650000000000015 5.2099999999999964 0.61225000000000007 14.320000000000002 38.615000000000016 436.61500000000007 -12.584999999999999 164.11000000000004 -16.664999999999999 -172.69999999999996 263.56500000000005 11.370000000000003 179.80811246339715
decision_type=2 2 2 2 2 2 2 2 2 2 2 2 2 2 2 2 2 2 2 2 2 2 2 2 2 2 2 2 2 2
left_child=1 4 6 9 8 12 -2 15 18 23 19 27 13 26 -7 -5 25 -12 28 -6 -10 -13 -15 -3 -17 -11 -4 -8 -1 -9
right_child=2 3 5 7 10 14 11 29 20 16 17 21 -14 22 -16 24 -18 -19 -20 -21 -22 -23 -24 -25 -26 -27 -28 -29 -30 -31
leaf_value=-0.72384917480517408 1.6213502246009264 -0.43743906873578209 1.8141213610768319 0.65461547401936071 -0.13317113903103692 6.940379412226946 2.6075608125401613 1.677011134696873 -0.30181863814364018 0.18806315138935339 0.024346514239652006 3.6862644405844591 6.4866483436878513 4.5754760533755592 9.0822225078459713 1.0869406324018036 1.4763719433783393 0.33075833852766018 -0.053698269228418333 6.8513738352319464 0.5246045768360964 5.9130458517635569 5.7638591165934336 0.28085492191521166 2.0211744169189347 0.58849137038348498 4.0318227302907914 3.2860372022376474 -0.46392787634966415 3.0513403966167187
leaf_weight=14583 4769 1941 224 6848 225038 1221 6076 8036 259054 6620 123872 517 986 970 496 21152 1419 13900 6252 23 1639 340 2751 81293 1164 49641 1091 2918 152002 505
leaf_count=14583 4769 1941 224 6848 225038 1221 6076 8036 259054 6620 123872 517 986 970 496 21152 1419 13900 6252 23 1639 340 2751 81293 1164 49641 1091 2918 152002 505
internal_value=0 -0.0836478 3.64753 0.556377 -0.227201 5.7468 2.5363 1.18933 -0.36615 0.387014 -0.0611785 2.97923 5.23007 4.98405 7.55911 1.02271 0.564377 0.0552608 -0.471019 -0.132457 -0.296623 4.5697 5.45407 0.264104 1.13567 0.541375 3.65405 2.82768 -0.486682 1.75827
internal_weight=0 974982 22359 178619 796363 7739 14620 37705 433530 140914 362833 9851 6022 5036 1717 29164 57680 137772 172837 225061 260693 857 3721 83234 22316 56261 1315 8994 166585 8541
internal_count=997341 974982 22359 178619 796363 7739 14620 37705 433530 140914 362833 9851 6022 5036 1717 29164 57680 137772 172837 225061 260693 857 3721 83234 22316 56261 1315 8994 166585 8541
is_linear=0
shrinkage=0.05


Tree=27
num_leaves=31
num_cat=0
split_feature=14 14 14 14 14 16 16 14 13 16 16 15 16 14 13 16 14 16 15 15 15 15 15 13 15 15 17 16 0 15
split_gain=1.09887e+08 2.85088e+07 2.59604e+07 4.98194e+06 4.91738e+06 3.13024e+06 2.7687e+06 1.31268e+06 1.24819e+06 1.13994e+06 864366 816805 718418 588256 581710 671540 519109 492607 487351 483130 437187 425081 424491 394555 389113 384805 375355 364869 355067 352102
threshold=164.11000000000004 353.04500000000007 57.015000000000008 89.910000000000011 29.245000000000001 179.80811246339715 455.95811246339719 42.090000000000011 218.52500000000003 74.589056231698564 74.589056231698564 16.750000000000004 32.759056231698565 758.24000000000012 302.7050000000001 369.86811246339715 13.365000000000002 135.25405623169863 -9.8049999999999979 13.709999999999999 27.855000000000008 22.565000000000005 2.4299999999999966 302.7050000000001 -1.7400000000000053 -11.459999999999996 121.50000000000001 199.9040562316986 0.43665000000000004 -3.4699999999999993
decision_type=2 2 2 2 2 2 2 2 2 2 2 2 2 2 2 2 2 2 2 2 2 2 2 2 2 2 2 2 2 2
left_child=2 5 4 12 16 8 10 21 17 18 23 -7 25 -8 15 -12 -1 -2 -5 29 -11 24 -18 -3 -6 -4 -20 -16 -21 -9
right_child=1 6 3 9 7 11 13 19 -10 20 14 -13 -14 -15 27 -17 22 -19 26 28 -22 -23 -24 -25 -26 -27 -28 -29 -30 -31
leaf_value=-0.64088687168133474 1.3469602242931136 0.21020372728758221 -0.25806085865372225 0.34969998359674143 -0.41229544352378639 2.5579176678993507 6.8546946512458362 -0.26550790810439301 3.6160100406924829 1.0199252544730462 3.7958127738530103 3.9564181401300944 0.37804662358883956 9.8048309326171879 5.5499375662105273 5.2813522956284205 -0.40034087511621808 2.0032830519257661 0.65863612816614403 0.61093673715771457 2.0597014534139189 0.87625307622975768 -0.14224400327385833 3.8843950169304535 -0.19717115397809681 0.17646224618991491 1.2120271451661913 7.3234074299152088 6.9928913712501526 -0.029278387632105107
leaf_weight=21198 12418 79 5366 12345 23099 7735 1527 17302 727 18317 1124 1207 54319 190 1427 2354 247711 3714 25921 2331 1070 893 17026 973 233569 100934 3475 364 22 178604
leaf_count=21198 12418 79 5366 12345 23099 7735 1527 17302 727 18317 1124 1207 54319 190 1427 2354 247711 3714 25921 2331 1070 893 17026 973 233569 100934 3475 364 22 178604
internal_value=0 2.80052 -0.0983567 0.376323 -0.240262 1.99048 5.40065 -0.138299 1.58939 0.760489 4.91701 2.74669 0.230118 7.18115 5.17826 4.80126 -0.402806 1.49806 0.613338 -0.0415876 1.07731 -0.212743 -0.383742 3.60848 -0.216531 0.154528 0.724054 5.91037 0.670607 -0.0501417
internal_weight=0 33839 963502 221747 741755 25801 8038 455820 16859 61128 6321 8942 160619 1717 5269 3478 285935 16132 41741 198259 19387 257561 264737 1052 256668 106300 29396 1791 2353 195906
internal_count=997341 33839 963502 221747 741755 25801 8038 455820 16859 61128 6321 8942 160619 1717 5269 3478 285935 16132 41741 198259 19387 257561 264737 1052 256668 106300 29396 1791 2353 195906
is_linear=0
shrinkage=0.05


Tree=28
num_leaves=31
num_cat=0
split_feature=14 14 14 14 14 16 16 14 15 16 18 16 16 14 15 15 13 16 15 15 15 15 17 15 12 15 13 15 15 14
split_gain=9.91732e+07 2.57337e+07 2.34611e+07 4.93332e+06 4.08823e+06 3.054e+06 2.51443e+06 1.16106e+06 1.19422e+06 1.03485e+06 983508 783666 552138 468496 444040 408032 396062 448500 391118 389211 385353 372559 366112 363853 354215 350735 345480 343864 310185 298283
threshold=164.11000000000004 328.39500000000004 54.070000000000007 89.910000000000011 29.245000000000001 455.95811246339719 179.80811246339715 471.3300000000001 -172.69999999999996 83.094056231698559 42.090000000000011 31.019056231698563 583.44311246339726 13.365000000000002 26.990000000000016 80.880000000000024 132.08500000000001 128.08311246339716 5.8150000000000022 -11.459999999999996 -5.9099999999999975 -0.25999999999999795 126.96500000000002 10.419999999999993 301.50000000000006 33.760000000000012 58.925000000000004 -5.2950000000000008 -2.9500000000000006 619.0350000000002
decision_type=2 2 2 2 2 2 2 2 2 2 2 2 2 2 2 2 2 2 2 2 2 2 2 2 2 2 2 2 2 2
left_child=2 6 4 11 13 7 16 8 -3 20 23 19 -7 -1 28 -8 17 -2 -15 -4 -5 -10 -22 27 -16 -11 -21 -6 -12 -9
right_child=1 5 3 9 10 12 15 29 21 25 14 -13 -14 18 24 -17 -18 -19 -20 26 22 -23 -24 -25 -26 -27 -28 -29 -30 -31
leaf_value=-0.60884254574944519 1.0748873185616736 0.25949306268296485 -0.22544538249280421 0.38653230859640036 -0.47686822801694906 6.2506256890824154 2.4795969553278407 4.8388416902392084 3.3364167289901938 1.0220981150923474 -0.26059695785163467 0.35283523970160324 8.228871911571872 -0.37430870485077428 0.90246391367069545 5.6014019984119345 2.3832262597012943 1.6248085579936065 0.014110664142717111 0.11479317231250522 0.6439223026422769 4.4376055613109964 1.198673129887486 0.3125372772657326 7.3259721409190792 2.0141474767893306 0.35494428107634513 -0.19579611081115555 -0.03307941707297863 5.8526747778995052
leaf_weight=21198 6488 217 7254 13970 11387 1221 8343 2746 1135 13893 16529 58299 496 258089 877 106 1073 8652 6648 95854 28999 2376 3314 3398 22 952 17749 245147 159923 986
leaf_count=21198 6488 217 7254 13970 11387 1221 8343 2746 1135 13893 16529 58299 496 258089 877 106 1073 8652 6648 95854 28999 2376 3314 3398 22 952 17749 245147 159923 986
internal_value=0 2.6605 -0.0934389 0.334607 -0.235654 4.92085 1.8194 4.48326 3.85915 0.722465 -0.139525 0.20227 6.82209 -0.382665 -0.0487448 2.51876 1.45494 1.38915 -0.364555 0.12964 0.605954 4.08162 0.700817 -0.201464 1.05966 1.08572 0.152314 -0.208272 -0.0543919 5.1067
internal_weight=0 33839 963502 240284 723218 9177 24662 7460 3728 61128 437283 179156 1717 285935 177351 8449 16213 15140 264737 120857 46283 3511 32313 259932 899 14845 113603 256534 176452 3732
internal_count=997341 33839 963502 240284 723218 9177 24662 7460 3728 61128 437283 179156 1717 285935 177351 8449 16213 15140 264737 120857 46283 3511 32313 259932 899 14845 113603 256534 176452 3732
is_linear=0
shrinkage=0.05


Tree=29
num_leaves=31
num_cat=0
split_feature=14 14 14 14 17 16 15 14 14 16 15 15 18 15 15 14 20 13 14 15 15 15 15 16 14 15 14 15 15 19
split_gain=8.95752e+07 2.64711e+07 1.53572e+07 6.71646e+06 4.56073e+06 2.17674e+06 1.74683e+06 1.16082e+06 1.11943e+06 886069 771535 744441 626269 542357 501317 475747 468346 430485 386822 385694 375361 366122 358378 289024 285449 281670 276371 267566 257842 252195
threshold=219.82500000000002 69.425000000000011 394.7000000000001 38.100000000000001 133.74000000000004 531.54811246339716 -43.995000000000012 24.215000000000003 51.810000000000009 57.054056231698574 38.615000000000016 -33.149999999999999 471.3300000000001 6.9499999999999984 20.830000000000009 263.56500000000005 -21.434999999999992 61.705000000000005 758.24000000000012 3.1200000000000032 51.285000000000011 2.6100000000000008 -5.2099999999999964 281.17311246339716 164.11000000000004 4.8600000000000021 12.065000000000003 -1.7299999999999984 26.990000000000016 13.890000000000009
decision_type=2 2 2 2 2 2 2 2 2 2 2 2 2 2 2 2 2 2 2 2 2 2 2 2 2 2 2 2 2 2
left_child=1 3 6 7 9 12 -2 21 20 17 15 -6 16 22 24 -8 -4 -3 -7 27 25 26 -10 -12 -13 -5 -1 -9 -21 -11
right_child=2 4 5 8 11 18 10 19 13 29 23 14 -14 -15 -16 -17 -18 -19 -20 28 -22 -23 -24 -25 -26 -27 -28 -29 -30 -31
leaf_value=-0.60472212099009059 1.390172626931454 0.29007583381547125 2.8742920830865781 -0.1093632514946801 0.69123252064483875 6.4566808545147936 2.1458663627710872 -0.40093438773365558 -0.17521788146030379 0.64032097389221587 3.2101129219995297 1.077855623782509 4.931301770581527 0.48612230444394 2.3475355479873232 2.8919285057101192 4.3888096964388863 0.56170522888668095 8.9031455993652351 -0.040896826903948108 4.6856731158931089 -0.13163163399990632 0.082299401011223461 5.1690424043991996 1.4705453196539753 0.23892728298868895 -0.39750667764781511 -0.23724419277057712 1.0915416429956986 1.3130841486665472
leaf_weight=17906 4769 70228 747 193997 6844 1080 5654 27928 14928 24495 422 11520 4110 7757 1070 3435 1612 18410 190 15954 41 11869 142274 340 7735 5984 158768 235278 519 1477
leaf_count=17906 4769 70228 747 193997 6844 1080 5654 27928 14928 24495 422 11520 4110 7757 1070 3435 1612 18410 190 15954 41 11869 142274 340 7735 5984 158768 235278 519 1477
internal_value=0 -0.0717579 3.12906 -0.179228 0.55982 4.93014 2.17568 -0.304564 -0.0184394 0.421748 2.55595 1.14227 4.55859 0.0779846 1.29414 2.42783 3.90922 0.346493 6.82269 -0.239924 -0.0979607 -0.400449 0.0578454 4.08418 1.2356 -0.0989414 -0.418508 -0.254613 -0.00521811 0.67858
internal_weight=0 974982 22359 833203 141779 7739 14620 468222 364981 114610 9851 27169 6469 164959 20325 9089 2359 88638 1270 279679 200022 188543 157202 762 19255 199981 176674 263206 16473 25972
internal_count=997341 974982 22359 833203 141779 7739 14620 468222 364981 114610 9851 27169 6469 164959 20325 9089 2359 88638 1270 279679 200022 188543 157202 762 19255 199981 176674 263206 16473 25972
is_linear=0
shrinkage=0.05


Tree=30
num_leaves=31
num_cat=0
split_feature=14 14 14 14 14 16 16 16 13 16 16 16 18 15 18 20 15 14 13 15 15 18 15 15 16 16 14 20 20 14
split_gain=8.08924e+07 2.19788e+07 1.67777e+07 5.10421e+06 3.84964e+06 1.96451e+06 1.83711e+06 1.09343e+06 758305 740379 733941 668459 639570 610464 565208 422819 384179 349107 340319 312556 298021 279966 276661 266923 264244 255505 250482 242092 221281 217502
threshold=189.80000000000004 58.75500000000001 394.7000000000001 100.58500000000002 34.280000000000008 531.54811246339716 207.10905623169856 88.508112463397126 218.52500000000003 8.4540562316985586 42.343112463397127 135.25405623169863 22.825000000000003 64.915000000000006 471.3300000000001 -17.264999999999997 26.990000000000016 758.24000000000012 99.540000000000006 -4.6000000000000005 -3.4699999999999993 80.105000000000018 6.0700000000000047 22.565000000000005 160.12500000000003 67.073112463397138 11.370000000000003 54.410000000000018 -170.09499999999994 732.20500000000015
decision_type=2 2 2 2 2 2 2 2 2 2 2 2 2 2 2 2 2 2 2 2 2 2 2 2 2 2 2 2 2 2
left_child=1 4 6 10 12 14 8 18 11 19 20 -2 22 -8 15 28 -11 -7 25 -6 -3 -22 26 -14 -9 -5 -1 -18 -4 -16
right_child=2 3 5 7 9 17 13 24 -10 16 -12 -13 23 -15 29 -17 27 -19 -20 -21 21 -23 -24 -25 -26 -27 -28 -29 -30 -31
leaf_value=-0.59521963076296325 1.0916952387760719 -0.025910408184814299 0.18930130004882814 0.42695860553134213 -0.30609966618306328 6.1338468396222154 2.5573403419725937 1.0931332018242121 2.9859363458985868 0.002622716467704251 0.41719484866961515 1.8295171621740041 -0.25840312914505253 4.7951800858532945 4.5649733598435454 4.178843359884266 0.76567201674538288 8.4579887390136719 0.94274279835953834 -0.1204109478777457 0.17639956701490431 0.45584656162346376 0.033968935253712966 1.1520581134728023 2.1704948295981197 0.72810519623427261 -0.37840263554806108 4.7694045360271744 3.0315575941449646 5.789419803334706
leaf_weight=14583 5572 16567 76 15630 25064 1080 5129 16100 920 119059 40194 6836 198392 324 3708 1591 1184 190 7427 236462 98808 9857 3805 336 590 12821 153903 39 692 402
leaf_count=14583 5572 16567 76 15630 25064 1080 5129 16100 920 119059 40194 6836 198392 324 3708 1591 1184 190 7427 236462 98808 9857 3805 336 590 12821 153903 39 692 402
internal_value=0 -0.0744251 2.72449 0.367683 -0.202445 4.68363 1.91719 0.796876 1.60088 -0.0909878 0.231296 1.49819 -0.317143 2.69031 4.33066 3.71376 0.0116794 6.48155 0.641344 -0.138207 0.171631 0.201748 -0.387647 -0.256018 1.13122 0.562666 -0.397169 0.893346 2.75029 4.68474
internal_weight=0 970821 26520 217994 752827 7739 18781 52568 13328 381808 165426 12408 371019 5453 6469 2359 120282 1270 35878 261526 125232 108665 172291 198728 16690 28451 168486 1223 768 4110
internal_count=997341 970821 26520 217994 752827 7739 18781 52568 13328 381808 165426 12408 371019 5453 6469 2359 120282 1270 35878 261526 125232 108665 172291 198728 16690 28451 168486 1223 768 4110
is_linear=0
shrinkage=0.05


Tree=31
num_leaves=31
num_cat=0
split_feature=14 14 14 14 14 16 16 14 15 16 14 16 16 14 15 14 15 15 15 15 13 0 15 15 15 18 15 15 15 14
split_gain=7.31059e+07 1.89376e+07 1.73372e+07 3.61818e+06 3.04844e+06 2.27907e+06 1.8604e+06 829202 948004 767557 743197 589075 517454 423088 372001 361473 343830 325175 322753 305879 304907 295817 281958 281847 281825 274619 270020 269169 263885 318159
threshold=164.11000000000004 328.39500000000004 54.070000000000007 89.910000000000011 29.245000000000001 455.95811246339719 135.25405623169863 471.3300000000001 -172.69999999999996 74.589056231698564 42.785000000000004 32.759056231698565 207.10905623169856 711.46500000000015 -14.754999999999994 14.665000000000001 6.9400000000000039 5.294999999999999 -12.149999999999993 22.565000000000005 132.08500000000001 0.43665000000000004 6.9499999999999984 -5.9099999999999975 2.4299999999999966 121.50000000000001 80.880000000000024 -0.25999999999999795 -89.819999999999965 259.66000000000003
decision_type=2 2 2 2 2 2 2 2 2 2 2 2 2 2 2 2 2 2 2 2 2 2 2 2 2 2 2 2 2 2
left_child=2 6 4 11 15 7 20 8 -3 14 17 18 -8 -7 -5 -1 -12 23 -4 -11 28 -18 -20 -6 -17 -16 -14 -10 29 -2
right_child=1 5 3 9 10 13 12 -9 27 19 16 -13 26 -15 25 24 21 -19 22 -21 -22 -23 -24 -25 -26 -27 -28 -29 -30 -31
